-0.03382400130722708
0.006260468264780143
0.0831635730383688
0.02067296754827154
0.1442063777055478
-0.1251750882839535
-0.04891875098324772
0.07423551328317257
0.1231754212620838
0.08743458155356092
0.1106107532191047
-0.1182366489077921
0.06246438913083515
0.07911987394499626
0.1251941527281512
0.07931058278698461
-0.09351926061037721
0.1419960909121494
-0.07294956333293591
-0.1381217347943771
0.125124199245063
-0.1132084896636959
0.05790232229821657
0.02532177602340827
0.134839667118029
-0.0433258342001161
0.04007802233093879
-0.0983805492927638
-0.05013535108446697
0.02126364865465983
-0.1424844901917167
0.06604161242353722
-0.1224758261579716
0.09067916687838692
-0.06328668134100605
-0.128271973090981
0.1155037169160054
0.03779500863331785
0.09596559511464781
0.0886792407370179
-0.02477021109120742
0.05657676478442883
0.1204420719421082
-0.112307066049872
-0.0143044391525797
0.09563594044750225
0.1170046260734258
0.04217677414609591
0.08763319886924889
-0.1059451507356871
0.05405547634406078
0.06275597251568413
-0.06915389022681283
-0.03804222498735414
-0.06192143186985551
-0.08431378279410476
0.06863048278276397
0.128156530752184
-0.0326959390466053
-0.1315033244959125
-0.0005799755268326471
-0.02517919696560553
0.08453846236015196
0.02694381442815989
-0.08450031478684593
-0.1287471525871667
0.04867405935189843
-0.1189964895342894
0.05904669032612845
-0.005361379261096815
0.119681661383041
-0.1157231195889026
-0.09878422375599054
0.09012493851309054
-0.07802907226834264
0.03691195665383937
0.03576029314145625
-0.1110242274254169
-0.07091109533131963
-0.02660725206287016
-0.06696937762712159
0.1331445935503846
-0.1138488700739012
0.01387729375981558
-0.05490002668760852
-0.02577127258906433
0.07956195167857402
-0.1362670114923006
-0.04761383878727089
-0.1031326088957209
-0.1177699676919237
0.1018058774739689
0.02168980709459941
0.1167687557185002
-0.02125010216240923
0.08718935810181389
0.1380209129502991
-0.1225759363226503
0.118192024536411
0.04706844855965185
0.02206288951902878
0.08787455467136357
0.08134535200070125
0.07327948760363567
0.02799952652821114
-0.146683431385137
-0.03980908750941041
-0.08623842974546835
-0.1077087961204476
0.03927978175294075
0.03715433716755935
-0.02467836368433033
0.0224224379720937
0.07330533478167095
0.1391977519066581
0.1175247288252832
-0.1024643823748754
0.06876210589835519
0.1312585150270064
-7.839321628138052e-05
0.1156305479555751
-0.1365108044314655
-0.04827268895491842
-0.01267969602228148
0.1302575523407467
0.08047746849734219
-0.07549109190026815
0.118278574556242
0.1079012019918573
-0.107298786334935
0.01534685733535761
-0.0200355362379381
0.1305763923525375
-0.0533085181652994
-0.09675626752672667
0.008575195020678918
-0.04999297261870617
0.01343440241051931
0.07233635843606177
-0.007699919146104316
-0.09728676723325846
-0.04050845743705475
0.1176214106796202
0.07513776803136997
-0.1172022916867733
0.1068209501603996
0.04266368733628138
-0.06966621307489936
0.02558287096935457
0.02392212998770278
0.08025544291839722
-0.008786487932683195
0.03741002873951944
-0.1180172541314841
0.1285332023419764
0.01766689175777683
0.1124599212031357
-0.09695731758059747
-0.01405251948824497
0.07036295418871645
-0.05425642047172725
-0.1487061122023844
-0.09967381167210727
-0.07368046482679776
-0.05201403028425483
-0.04643036373724712
0.08489503908664689
0.0479940840499448
0.1170031472066084
0.007231224812127513
-0.1097059924556865
-0.1302815328840224
0.1167238311221468
-0.1420845399573839
0.09485658651443969
0.1495220494920025
0.1147364516059739
-0.01248066395277046
-0.07014365542448699
-0.009681768500437095
-0.1385578219133966
-0.1398888745495566
0.1315314676919227
0.0488523341063087
-0.1079052495021019
0.1100663855268715
-0.08347816911249695
-0.1454445453190956
-0.1368915097726935
0.05246879281591103
0.07491675327760947
-0.04114795689990183
0.05376265259955596
0.1252430007859305
0.03517145322491066
-0.1482511561369656
-0.07118741419221619
-0.02993346386586011
0.04974277270945848
-0.1041833486660306
0.1272989570431419
0.09003685776261934
-0.08446550354559584
0.09402152194185832
0.09795091489636316
-0.1396089693112022
0.0935439822113763
0.06268821442276297
-0.002089124350903473
-0.1266001799157926
-0.09699322225249814
0.009354077268818753
-0.1164885747090394
-0.1154600928376708
-0.09179259535940019
-0.07439415153320605
0.1446065103889033
-0.02527090196099121
-0.0698400630483131
-0.1422862602739312
-0.1228017574034575
-0.1449228800717823
-0.03343367326365221
0.08095985187816426
0.1303197999467009
-0.1482623382486083
0.08270884833831987
-0.09086720187533967
-0.02819680779641256
-0.01754888360536236
-0.04505139430308248
-0.05089794427553918
-0.07751136567793385
0.02048480174061134
-0.1068749371715239
-0.1295593877227788
0.03087641498114748
0.1366692746461692
0.08312881562538856
-0.1212117705825771
-0.1399297052359636
0.1361365327849915
0.03814231495673989
-0.1064194907853596
-0.1293239780605417
0.09634978009683537
-0.03081335443109896
-0.1347179758291309
-0.07892107676198758
0.04934748075872077
-0.1270034832307154
-0.05172314066520107
0.05442506833983683
-0.01043693196657048
-0.1207624838054214
0.03474560812877459
-0.008699602227426821
0.1119462454811187
0.09387876289684138
0.1131047556332519
-0.05560114011597669
-0.1011711723276781
-0.08779216800348753
0.01688685924306088
0.06931371428440901
-0.04466631475165922
0.03732818626257231
-0.04981083118892077
-0.05799710792861745
-0.02954296356977101
-0.02102204848594127
-0.04792773611747089
-0.04340693398092026
-0.1328803083940869
-0.004346939532785656
-0.02273103885260579
0.1134702791292073
0.1148399959712246
-0.007448444250382302
-0.1154502787182232
0.01418686520403434
0.01554716630628531
-0.01717494402019324
-0.08138820672968253
-0.144889233305533
0.01206340373589817
0.1033578630785262
-0.003588147952029552
-0.02598967121914387
0.04723721380857927
-0.04048236273394339
0.06840935591412328
0.09606509881376525
0.02172606115775464
-0.06470315545550694
0.01537840578955525
0.1270596787226664
0.1226250656287303
0.1155681278861911
-0.08093742934564939
-0.05691769994427852
-0.05545409205104765
0.02113512767332624
0.04967604772023759
-0.03833542634874757
-0.1332127050349171
-0.1230577584324243
-0.07486442510648909
0.1316276020750532
0.01949562359112112
-0.04031445695567618
-0.00418521089208555
-0.1149567939481451
0.0925117103885694
0.06442657056362266
-0.1098464502035511
-0.04542516371953542
0.01778490830575344
0.03656595642052868
0.07858509795208697
-0.08497867655570554
0.1460830354152031
-0.003005525418863557
-0.1389134236276277
0.01780952385990392
0.08229117851345388
0.02646500606856543
-0.005130797557128025
0.05491624400248577
-0.0079668661849419
0.06393177323692095
0.147998346061445
0.08657921307560951
-0.06493339236589772
0.04767359904836564
-0.1017543809729416
-0.04814560252527739
0.07461769326121014
-0.02661897418609749
-0.06651853514590331
-0.05588611072172946
0.08306764868620301
0.07929683138773017
-0.02084318295650793
0.0255791076345272
-0.006276060573885239
0.01931109082387347
0.1301539439149918
-0.1384911524078302
-0.09412295289529624
0.05873904172738037
-0.07346965080288688
-0.09803951880872358
-0.09426689992666393
-0.06238264915207978
0.06976967208037364
0.1380245542097951
0.1140819556843871
-0.0853607637506727
0.04294079807258248
-0.0438848135655808
0.128570902996841
0.04093956628161325
-0.1073046862129497
-0.08636238301934786
-0.06138725695730524
-0.05906007853758524
0.01549212013627037
-0.136768993387789
0.06432267051471513
0.09897417649232423
-0.04265506755101017
-0.00261027140198753
0.02827111942613084
0.08650140344933671
-0.1270311639071587
-0.1280049412874528
-0.04418750586648821
-0.1468772201318653
-0.1164960935555846
0.01168762104237215
0.06186103727419744
-0.03996807456831793
0.06364916516452153
0.1175954197786639
0.04765122828971192
-0.01658001372642132
0.1056198391635378
0.01173316080203891
0.04805932124054959
-0.001439450705162926
0.1178482501617857
0.02663033058709946
-0.1105003067108338
-0.1394574475425563
0.0902679475677516
-0.02188756366813908
-0.04851752594044316
-0.04423993229597804
-0.008656795443341513
-0.1341963655235912
-0.09526592104480387
0.09868767017977981
0.01319396113741721
0.08300541221769779
0.03518902486431832
0.03616309211876388
0.1050004710699434
0.1410011752199841
0.0392860582676831
0.1385038642495397
0.002690648133943737
-0.04885230641758641
-0.05146136698381108
-0.08365888871888578
-0.08125710926542856
0.1461898382735391
0.0497611962723365
-0.1256373580431739
0.007922998935879689
-0.05217951769506363
0.02292319189771069
-0.0242287517778631
0.1244508468142252
0.06242288454082928
-0.01368619844489088
0.06471879538834037
-0.1094646792670082
0.08779627561466595
-0.129521137047336
0.03187852528965032
0.1036008031822745
-0.07478663044808533
-0.01943313691388513
-0.03320454285997799
-0.1417809350383488
-0.1342448285707481
-0.1470418488127374
0.1132190390318721
-0.1432433097126164
0.04224395437277193
0.1017232388011319
0.00944783010884548
0.1433917238348174
-0.09973795057727859
0.07578886180454346
-0.08786539264855225
-0.1035481124434379
-0.02444994206281842
-0.06350275069172623
0.05437488663214021
0.07337057531036929
0.1094204406996353
-0.1198538644098927
0.04782142313095807
0.02184332510076619
0.01645784741333253
-0.03746069220874581
0.06237617837357187
-0.0457450642024872
-0.01698078520502939
-0.05574262236584261
-0.09214332345086543
0.058232180642988
0.07482331796773864
0.0246520748709571
0.06645080531782044
0.09057848939699049
0.02761022605821967
0.02966984434969248
0.09733517982407247
-0.08014575076761923
-0.0186067393834734
-0.04321706979219665
-0.08675403415074293
0.03165531003924799
-0.1174282081273516
-0.02461942665959681
0.07810719773550853
0.008121849809830018
0.06187694269576653
-0.01751778792550925
-0.06850783904237558
0.02129760726433534
0.01262821981805758
0.129313848111459
-0.10685841169062
-0.1209118431764244
-0.05814593364863932
0.1055202342828364
-0.01665563041654211
0.07487314782332308
-0.1002225947334536
0.04120138538591628
-0.01689461496048357
0.124600723234285
-0.08414653974312662
-0.1004438096426631
0.06517921263127549
0.09346368631509304
0.07922603470702935
0.01251439231564961
-0.1366820645922246
-0.08938070481614242
0.1192973138928384
-0.07343610721278786
0.09227460536280394
-0.1481308838337618
0.05194447473713404
0.02038180295861409
0.00999096406623301
-0.03617770275388738
-0.1471361129531339
0.09148338904673389
0.1351205605944248
0.01549210686492365
0.07079723701849451
-0.1217378512358935
0.04458026368849922
-0.1373486967698432
0.1337823830469429
-0.1220753667280429
0.0875244511931783
-0.1164402118262091
0.06912601865787339
-0.07937016390700365
-0.1418394885919241
0.1349794789147468
-0.02981365971726649
0.0733393169835788
0.07844335203254418
-0.1005875469216639
-0.06414588378469734
0.09176110063761524
-0.03996864365877986
-0.09484856140094276
-0.1316749981053523
-0.0976940384356743
-0.09297944714453978
0.07026947663178175
0.07268776452293982
0.06701151692169323
-0.1159082261221056
0.07555165156980588
0.008494905828728749
-0.1307876656673791
-0.05895624170496885
-0.07070785729247511
-0.1025255169032726
0.1356240219835304
-0.05805655406231831
-0.1187431339960281
-0.1364511561500542
-0.120531911760641
-0.08518364775169042
0.08267454103204627
-0.04990226677614371
-0.07702283441416119
0.06765415268840928
0.0702837596741895
0.1463168896251902
-0.003902682221449299
0.1196958208315521
-0.06782899429920548
-0.06214158158383407
-0.07027282296692619
-0.01267755570014825
-0.04381657968918633
-0.01796686140260047
0.04434299715531198
-0.1235471030574046
-0.09527909701935904
-0.03864548606269317
-0.08945532917951016
0.1302725545504468
0.1198494197660356
-0.07024297805896447
-0.07868385475706179
-0.1008589696026168
-0.02276898544198359
-0.09305966545038841
-0.008914991588757831
0.00848835425381007
-0.07951101019490091
0.02055290540240373
0.07330500843157292
-0.1468363364212384
0.12065063862626
0.1462821741571101
0.07081781626717086
0.04093439830044954
0.142599063642602
-0.08308486595427843
0.01063021899230322
-0.07522993065660351
0.004773552461887498
0.09035739602537704
0.06209251364324823
0.1109569727727012
-0.07760946551692181
-0.0435926089052122
0.1374105032287699
-0.0228863379289388
0.06778869597432462
-0.1020452632041529
-0.0426165208319677
0.03763914462264168
-0.0222883388796458
0.02870151825713556
0.08678054326531565
0.1049424759638685
0.08564113475225278
-0.07213232358926476
-0.0365693251596085
-0.1438710516027776
0.09841906538943321
-0.1132629727671987
-0.1407072882948543
0.06906919407948769
-0.1169826202797698
0.08011115026276457
-0.03999642172949145
-0.1243826580839221
0.1470263331421325
0.1206345419720184
-0.04961237883725809
0.001799575039386407
0.06099133708502827
-0.13752062525698
-0.03718177603639324
0.1334361820835422
-0.0310225984705232
-0.04977328388929254
-0.03947057591285472
-0.1132406227048411
-0.001834546301120717
0.06790021879639885
0.07434532184520999
0.1258323596557367
-0.05342235377726865
0.01112548069141385
0.08081037479433315
-0.1177395313993168
0.08902548078248387
-0.105757585375317
-0.1116520008841567
0.03741351566671538
-0.06904953068004789
-0.1023519465781477
-0.04347514355454696
-0.03599770981560556
0.1277892935237588
0.06652737593884901
-0.01033483196562604
0.1248763730675062
0.03719332720519309
0.09003300486351237
-0.02335619367925394
-0.0518451441799417
0.1024949043291268
0.08936842117808085
-0.06850742635879895
-0.07863651253691506
-0.1105008294501174
0.04198336397438864
-0.04191424422971864
0.03764627010883719
-0.04011509093909423
-0.1175755765189123
0.01347402627156117
0.05646304939679535
0.04355716059019498
-0.05574226660639892
0.08865938730303863
-0.01746875263605807
-0.01156119607889972
0.1270076359318152
-0.1299901777204406
0.06943025613522624
-0.1252985138476095
-0.02352090544328999
-0.1166435439101551
-0.1475728003707484
-0.107074470472783
0.02291870757157373
0.1272519230968981
0.08007078062547769
-0.03707027490812925
-0.04621090575458689
-0.1218663388663106
-0.08466752143300171
-0.1068962088765086
-0.0403613758327555
-0.01329460823268765
-0.06740694280270131
-0.1483813783695481
0.09477201442210309
0.1202289811795947
-0.03850181845417845
0.1272125848116301
-0.01631901933067537
-0.1320775327492709
0.02073467727995389
0.07791956318267612
0.1065839196209004
-0.1466487785100124
-0.08356456810841559
0.08365419694499819
-0.1267128479232815
0.1357470276192243
0.1082775990288855
-0.0003506165390998041
-0.1308955505736994
0.1107110424141183
0.0425918280399491
0.0420317534783639
0.08785751426505398
-0.02743468511730184
-0.1451116877585238
-0.1084187357958493
0.0007038083629234748
-0.07977086427889618
-0.06532062498160571
0.1103412093069906
0.05692271810438645
0.01727230212058513
0.1119518710123151
0.001702054334665659
-0.01250807250035371
-0.07656746157045131
-0.02111080228581499
0.1211672671521727
-0.0586448798003372
0.1496120255177031
0.04907754284129043
-0.1020481786992242
-0.1471157227471217
0.1154308653182701
0.1315527912839041
-0.1238971507860922
0.1011709015528424
0.08982883547444488
0.02574876190201229
0.1202553790558817
0.05044478284712743
-0.08169740051086316
0.01224877636471955
-0.01172279143554274
0.04086486673737284
0.01710606020274854
0.02981068211598821
-0.1084879532728754
0.08733364233622963
0.1145405679825999
-0.1481120759206227
-0.005678376749996585
-0.01818547794277744
0.1138781407426539
0.1460619451147211
0.1193210237645806
-0.1126677323908974
-0.02514554661312356
0.09041769381598017
-0.02141413164480993
-0.02553094834973781
-0.01050737828971231
0.02652243942791711
-0.02265658442520377
-0.0450870353705655
0.008104646232723969
0.003453926191229282
-0.09389150702024447
-0.05213885156664686
-0.1208731556641278
-0.1237175091047387
0.1482224439262517
-0.05263023204292647
0.03851072056130016
-0.0135470959973744
0.1381885119270864
-0.09439022306477654
-0.1337074085512532
-0.1202890839270764
0.1429566075373335
0.1307845519336437
-0.118458775070741
-0.01279959910994678
-0.03749151554348293
0.1453443056526921
-0.01683022937124139
-0.06824145783588358
-0.1174331079085512
0.1080239184005297
-0.1278269119977687
0.01115313826405566
-0.06750679990188446
0.01166936487104042
-0.1123248187649645
0.05983638456549326
0.1165822535131975
0.04572421856956753
-0.08674237476779205
-0.1273592998335785
0.143547402579006
-0.0576139304377813
-0.101051506811696
0.141792696091621
0.03978391861085688
0.08745597264846051
-0.02171558439587758
0.0280008384732135
0.1430859393918042
-0.005441695057066661
0.05762220258248141
0.1359726743707306
-0.02477483706305495
0.08915911481676582
-0.02679358153171833
0.08775492626111095
0.08450288423888569
0.1063695153733346
-0.1305005749609719
0.1170613493455703
0.06437035048441141
-0.1083353733728087
-0.02178302237186337
0.1468782132551507
0.05334557869299938
0.01590832238023163
0.05674448850375779
0.01997385793133114
-0.08832200978695316
0.1200122678955098
0.04256344283584666
-0.09484692832680741
-0.08765854879173381
0.09148963845404313
-0.1030852034003871
0.1020955942813752
0.0289160726493765
0.02512838322442414
-0.01997281648573402
0.02195544292172686
-0.1303915329718004
-0.1123556125054643
0.007921480135024273
-0.005170323678837313
0.1268090610750062
0.1310979832807081
-0.06743733716077979
0.06130381790516143
0.08744425691545206
-0.04794580847860584
0.0283654213897265
0.001814520199456383
-0.006277612622956568
-0.1434201411111105
-0.001309236948273761
-0.1029149827956876
0.02247559630409367
-0.09459005299926039
0.06704752856427522
0.08414069504455921
-0.1246021165501956
-0.04038090125939082
0.1392430439358108
-0.06231959355624725
-0.09897347225822119
-0.1138615849840248
-0.1102287234087608
0.07994876402893512
0.06127947182919805
0.01979902026699809
-0.04807712117559276
0.08090340843772807
0.05747684398826883
0.1098318956058101
-0.07427850716996955
0.03426275957482264
0.0909219718584834
0.008288129645063803
-0.05442967263672453
0.02838592581546114
0.1103410143110964
0.1239366507473471
-0.1198242613439561
-0.04594709700716058
0.1305071698876597
0.02885334835334371
0.001131844412057011
0.002998574386626917
0.08423364440332212
-0.08187748270618475
-0.06294018012142748
0.109564734604007
0.02763543826417783
-0.07370388811626652
-0.1027595832258275
0.07866812964373646
-0.03755279951149262
-0.06298830663458831
0.008639183980281013
-0.1262547733893793
0.1068309356352372
0.1105296678109564
0.1046551595238481
0.01431286568474255
0.07039081504011992
-0.1196229248934488
-0.1014822923818055
0.01125054646341621
0.03860064288070455
-0.005920447155796205
-0.1103095393296265
-0.001012949385702014
-0.03192210530059329
-0.08014111786353698
0.10298406148934
-0.05148596535506005
0.09864092331782026
-0.04590316354106327
0.1015092010591388
0.03289502145563736
0.02220932400920083
-0.111415603505402
-0.007563838994858707
-0.1001753402176198
-0.03515343390645153
0.03967657791901221
0.1284927894261166
0.07729376658205583
0.1266882712844239
-0.01289031718060854
0.1010204388997613
0.08349898491683368
-0.05237585385440655
0.05563109615148561
-0.05223006900585553
-0.1320198009070173
0.08596094704320884
-0.00371789130965004
0.02923439937204671
-0.02543052060338988
0.1403789496834658
0.06882609808872943
0.1234872163149934
-0.04163720956614111
0.1386076171363739
0.07647127766463499
0.05687682507879885
0.08724854031449582
-0.1194318860161267
0.008367459270342947
-0.02988150413354976
0.05275541581934915
0.04693139695426329
0.1125577095297821
0.1025819954241542
-0.138235520565992
0.002232705639783605
0.08107478471057247
0.08907865082289099
-0.0210524099469865
-0.08181071472625313
0.04008325834737093
-0.0875800382986572
0.01580861367555735
-0.05429021907238766
0.01017862677582477
0.03376122349058353
-0.1183339159817503
-0.1435410712550633
-0.08701423575877447
0.006221253404496807
0.1468109250053814
0.1317945212506663
-0.02029153042020812
-0.04482628470045807
0.1204021382473419
-0.09382025275557312
-0.1379494597613576
0.0576839951986883
-0.06319236612718331
0.02047490472595788
-0.1221750772712952
0.1395198236127311
-0.082649212380749
0.1403591298950652
0.09211254939160721
-0.07089960757684875
-0.007440521222278717
0.02316197700480091
-0.1318413617004833
0.1214804557019288
0.09134644453476483
0.05823732321534181
-0.1160995827364268
-0.04284494192937618
-0.1460528959967442
0.04407904417909638
0.1409213312859281
-0.114371979118637
0.05054993173229821
-0.09608341856554747
0.04186362805820051
0.04734496837358223
-0.1143096686640334
-0.1284579772867532
-0.1474813164665742
-0.1438838421618871
-0.07226963967182148
-0.1354105445352566
0.06376149595248351
0.01446963118597382
0.03498722356045024
0.09151379328291576
0.003974828056048052
0.1023231365495935
0.0818405664208534
-0.05393797964972349
-0.1185764711669536
-0.07559986608141828
0.1192240191933208
-0.1004178995804924
-0.1041194993788933
0.06057044175014385
0.1078194903479048
-0.07021908211532006
-0.1322745003189307
0.1117665943511606
0.1238599620637763
-0.1413531690330027
0.1473788940801187
0.02439409083743172
-0.08745817490425206
0.03920094115839735
-0.0782549165557595
-0.05176702747203737
0.06075446992682035
-0.07574234252131654
-0.04567455802842721
0.1384790359657553
-0.0611778884897873
-0.1319198159437048
0.002944403400496615
0.1238141049509002
0.1095823832599364
-0.1430793010131825
0.07613724136079533
0.04142294954109144
-0.04701728066290601
0.1075607701938417
0.1158229945999677
-0.07779328344752699
-0.1428570628132937
-0.1382965049186239
0.1327771583026169
0.1150150482052608
-0.05845418635039099
-0.1494425550709617
0.07678781003722704
-0.08466222019317848
-0.1408477866037026
0.07410848597490181
0.08973836760215789
-0.07830786999701887
-0.03667963696023432
-0.1385226455929329
0.01992510253094374
-0.1259251671731124
-0.06426498811424941
0.1242505446422149
-0.1374489274283168
0.02456189327620057
0.1423191346192356
0.01549694350245266
-0.001624001912597561
0.1019015177394736
0.02241764248927013
-0.07548676069150062
-0.006675532719434945
0.1254053775001724
-0.1179049657919792
-0.04083944059478103
-0.1023664324102587
-0.110783053450651
-0.02914904303809117
-0.1196157635979428
-0.1458206259160399
0.06233537006766321
-0.1191131056142566
0.08090839610943029
0.1276797450974955
-0.1099636168032715
0.005016311935622386
0.0674181256990033
-0.03827148666059201
0.1183366749753881
0.07889548010607041
0.1316536158703517
0.1424115078022757
-0.1353695081478774
0.1059041603728682
-0.1450374197657394
0.03919238512832316
0.09822331262464852
0.02045950675151228
-0.1124316002324375
0.05012481259187909
-0.1071228337740166
-0.03791837761547341
-0.1065507202672543
-0.1317224720873509
-0.005844368252830745
0.002596741473580122
-0.08411539370851377
0.03337257829651821
0.1234476984354889
-0.05373115730645654
0.03755195252017673
0.03578306836345378
-0.02284426292071318
-0.03153965151009134
0.01346281346094926
0.01719212041571368
0.1234766604255311
-0.06911906097974584
0.1289206337551217
0.09181333526122072
-0.1402236484702787
0.1105712830449675
0.08423871537596604
-0.1255857902466542
0.06647840985864328
0.08918742315805864
0.06359929596707194
0.01470170457135035
-0.04035305324492652
0.1011676790430991
-0.08517348297646897
0.002524112981056858
-0.08675069871207267
-0.04172420324372323
0.02080164103340434
0.05740493303509658
0.1108725383695553
0.08668624732489058
-0.05922248880808358
0.08432023666534583
-0.1170449101212644
0.1283294637120932
-0.0298966949712004
0.01011082709772086
-0.05320879638794807
0.1335652883980649
-0.1227029269651526
-0.07973703263831465
-0.08555294262969539
-0.1437764190108405
-0.1379201925303415
-0.07577652364306921
0.1167978304749345
0.09630465039345654
-0.05136961280432045
0.03327624019387936
0.03549207341181676
-0.1377703169769469
-0.1020220552347703
0.1451390203065886
0.1133973620661522
-0.03719553821123929
-0.002336866852052921
-0.1233533367856188
0.07108025868473586
-0.131535225958347
0.08405159624947774
0.03195279691459274
0.1051751443841753
-0.1251614999411426
-0.03370887948540124
0.1381172026835797
-0.146841428986211
0.08637633846903982
-0.001783061656999896
-0.0500516169239076
0.06994245681909025
0.02551988571673627
0.0202148555639269
0.1343895141893949
0.03174346670589571
0.03229466303358536
-0.0913870095933727
-0.001458702958868208
-0.02140068657295811
0.007243377602306844
-0.1181824627649889
-0.1359086133008397
0.01947306062535991
-0.07020451799975919
-0.1407695931339495
-0.01712957744818627
0.04385840775760722
0.006893557734058186
0.009516585515829625
-0.03631977600536519
0.02535834329045087
-0.05642991814452291
0.1456331990963834
-0.01949070372572762
-0.03160223165538585
-0.03809259236105524
-0.03138431926444359
-0.02844367969022478
-0.1017176760999563
0.1168326501800833
0.0715048155691058
0.1182248291889177
-0.007647828213328346
-0.05828029987524146
0.1026143746652162
-0.1259043034264569
0.1240142027970092
-0.1387727142114391
0.02263713414958225
-0.04738642107306453
0.01847067345470126
0.05445462709423757
-0.0332950067447455
-0.1120562237731415
0.1342500385159882
-0.02406595185874173
0.02081207935457402
0.02684888411500854
0.132827441062166
-0.1196695376944369
0.1405294005489634
0.008185359938929658
-0.02610130860295051
0.1361632872232532
0.1386966572616507
0.09229802988133777
-0.05193053580056588
-0.04268760682761767
-0.08614712881008932
-0.003650150420806317
-0.07585713870553504
0.1353590927977664
-0.03542536669894596
0.06649668319578597
-0.07292182817126365
-0.08280946908346672
0.09059145637599184
-0.09890605015794526
-0.0715821542668125
-0.03676876669549727
0.003705805215881877
0.09688727251815528
-0.1323179837328468
0.1204106526438473
0.1348314098021605
-0.1480674408107638
-0.05365546255350671
0.005646759143372272
0.02878399518824008
-0.07082459208688642
0.03597864134341446
0.01931364785113613
0.08736334688277766
-0.1401228245363775
0.005476610486144856
0.07605955931488867
0.1021756850610248
0.1035452302511316
-0.11662864401598
-0.1339701579063725
-0.05010174922012793
-0.04248427919461088
-0.1486112260432765
0.06447435633294678
-0.1259869878662266
-0.07153370763604322
0.1316652675084696
0.1146047523507679
-0.02043875082975393
-0.0899186634855426
-0.07216468487660982
0.133263416146622
-0.1430300836345536
-0.05448443122948119
0.1036763330726008
0.1418052977040312
-0.05254894339617888
-0.09997552786900138
-0.002548722585523894
0.1262363845575808
-0.02080031911052461
-0.1165706143221592
-0.004449404957546583
-0.0834364493165581
-0.1066913074675629
-0.1489730407149336
0.14262269092428
0.1454819004597311
0.1045736293577342
-0.1240059074891516
-0.1384843345007279
-0.09552609485861313
-0.01649241707921567
-0.1370994637922604
0.1189467110778318
0.007519754364735874
-0.05863118731173835
0.1006112311649729
-0.02787278493777464
0.07092708696930423
-0.1393048820999223
0.04995851966097957
0.05419643117696669
-0.1323307896881973
0.1454782211200698
0.007872946820162685
-0.1405257944439192
-0.05707160255277589
0.05789580169421669
0.006926107542935577
-0.08083333943532495
-0.1129033991894235
0.04035581089107124
0.0647173718617844
-0.04634105427951601
0.08366365934597299
0.0657460596272758
-0.05371945983865153
0.07914717728597603
0.02031941325233147
-0.02772724349703597
0.0906614046699688
0.07479258809270282
0.1057812906295975
0.1035624852817668
0.04373997966315411
-0.03669595996320055
-0.1050679818949168
-0.005647102935168912
0.08542749626324203
0.1158601693216804
0.005050492964954709
-0.01461259474970328
0.02005722832409807
0.02271979340424218
-0.01913263870828441
-0.1220698093865392
0.03219424280440166
0.07379784422172134
0.08582678968730914
-0.1108797558606715
0.1429629828445789
0.1229232455281943
0.07947474598947535
0.05767973458666797
-0.07341727284134129
0.01313985256218402
-0.02657259241511871
0.02286338262611352
-0.0577129938623898
0.1437474873456173
0.1451369239926044
-0.1170522504332719
0.068540625282815
0.1009191806199584
0.1365103651004233
-0.03772092240583205
-0.08577788382086442
-0.1185574738274646
0.1066354719254353
0.1496516106648611
0.1473049179172632
-0.0383137014174432
-0.01495893354092054
0.01736287839826291
0.134406699701778
0.1159067016866888
0.04528990035964091
0.0165968255173746
0.03970403495393119
-0.01888075136907561
0.05572144372074108
0.03267106380861404
-0.04595636814829956
-0.01480332926802368
-0.05964738368505956
0.0306260983835096
0.1483365272164049
0.06378002935730852
-0.09651060929602817
-0.05937646492903208
0.05752749245976206
-0.1013736836638353
-0.0264287505654752
-0.02393182519540741
0.1495455510912209
-0.03991799391336646
0.08834894848762109
-0.08623079242817222
-0.008477054760120175
0.04498279483157491
-0.08658101277732709
-0.01117168108270063
-0.1433284238092773
0.04845959105086431
-0.1438094074916445
0.141076481960076
0.01436885427189749
0.05148394876229371
0.007678305058590262
-0.09592553244248289
-0.1173958313499558
-0.08660089440485504
0.08674530467063384
-0.01335413046593169
0.0485950805576285
-0.1229026175281781
-0.1327257381983209
0.0469309776939806
0.09087770026736187
-0.07923666795361033
0.1375543776541047
-0.001594327050920485
-0.03061126286352325
-0.03887466531254936
0.1244722895598604
-0.03106625921280922
0.07120872132975889
0.06282451121058079
0.03270302502564294
-0.08726559301710948
-0.04219184945905202
0.09612267368758221
0.05156451021393971
-0.0355204587269204
-0.005416927093368451
0.05775677487615345
-0.04444252529639384
-0.1410489908487385
-0.04075961684167018
0.1132355773868872
-0.08697394818857962
-0.008154439627264837
-0.1233653215101758
0.1497711198403366
0.1284930812560455
0.07523061769326711
-0.1231311960952036
0.1457667003831671
-0.02783691905514191
0.1177465172175516
-0.08347023247446862
-0.04028095001833557
-0.0338503050048746
0.03591884289979527
0.07084753501896485
-0.05937555557673835
-0.1451484440746129
-0.007946212927594407
-0.1465527831822469
0.03755769306580332
0.05479052556877931
-0.03874554387144814
-0.0163201886018613
-0.04364573771688088
0.07573596878244356
0.1282629605747121
-0.1358888211128715
-0.1187067635211659
0.1372145261486428
-0.02664818966482958
0.1445289317730597
-0.09976022031014074
0.1151970116980397
-0.1288375625215055
-0.09998728580802613
0.09369174372164528
0.09639055468294092
-0.07312033051787545
0.08945703227794567
-0.08144358382276717
-0.1053729622882665
-0.1440123215289844
0.02827623951168554
0.01077881840093938
0.04190613358418479
-0.05087972744279669
0.1014034106804301
0.04676186037957013
0.0911779920296641
0.1048523139463981
-0.06568171652764161
-0.004032114033602229
-0.08389125868393633
0.06799817100074056
0.1023222901170711
0.1418447100985072
0.04626232438497193
0.1164332303901623
-0.1268629859031237
0.03347248275128829
-0.06021682247339416
-0.1323358674805726
0.08371578694274399
-0.09501457418643684
-0.1111697560461097
0.1337279888259843
0.1486753831145705
0.1352243496501931
-0.08939342324891865
0.08813123656164579
-0.09621847797680209
-0.04476327155299806
0.09412097420735331
0.08205777855220148
0.1160143650444291
-0.01397214539534047
-0.1188208382181414
0.06741802451754647
-0.1172117833497922
0.1223579618508959
0.02227071596880942
-0.03289279243112206
-0.03167383879501086
0.08837945728487308
-0.1148946215700799
-0.07935154881763809
0.08022416724368192
0.0813665100053728
-0.1129180798134385
0.1033621136813248
-0.03515781400965425
-0.0231320401994195
0.121028476321192
-0.1014423223468982
0.0318519337718318
-0.1401421888384187
-0.1177133978737203
0.0305278696610748
0.1450825168511388
-0.05710523121345551
-0.03133919089163615
-0.1011349978629197
0.0481305028768864
-0.08721821682398125
0.1309227808289802
0.01414486792131555
0.04880963778067828
-0.1378969359620926
-0.0684372223919924
0.08159780806338526
0.1344623674424819
0.1038330606940309
-0.1012942306936226
-0.04721249937881366
0.0422134429180126
-0.06618885212400408
0.02343800063231543
-0.02756148528308336
-0.1348225197075159
0.06051676579929388
-0.07420027629667905
-0.01998015626798392
-0.1126141682093098
-0.1031714068041981
0.02857762787676045
0.06923744163720626
-0.09331222244728718
0.0608649505365397
-0.05023452416073276
-0.09822883012156412
-0.1462402941175924
0.06842628494763109
-0.04936382798448383
0.05189020889899238
0.1312080681236499
-0.06844104729520205
-0.08396625629326718
0.03001574837943756
-0.05633787988630133
-0.002402957821846743
-0.03838350360673765
-0.0718779520629787
-0.048566719238604
0.01032157946184507
0.03091085691978729
0.1436457751754884
0.09413318496389927
-0.09565319127666447
-0.03391661480251541
0.1093108427055696
0.1148646808531437
0.04188310890080551
-0.06066931370211268
-0.1477494873561661
0.08871170209660738
0.1179089887849563
0.07148513623042027
0.1453974401537243
0.02877339912273875
-0.1287454611399587
-0.1028294213827836
0.03253344431637482
0.0896802358979733
-0.002193249227569094
-0.06557786542038224
0.07088799720900965
0.07936437990754601
0.0004579554994070549
-0.04909399035344551
-0.1269722797800658
0.1480570763806147
0.06252227742808046
-0.04884892348146481
-0.05051059150160784
-0.07715568562371457
0.1320619335780209
-0.05686480608024914
-0.1330225007995137
-0.1135912597748475
0.0592185677428512
0.126288341906056
-0.1487265769851983
-0.04889832250722605
-0.0843809719357551
-0.1464760643413645
-0.1101866204106186
-0.1164719832904972
0.07501241076971052
-0.1147865771843202
0.06230408849390918
0.0962659888699363
-0.06761666722946592
-0.05516480054015518
0.03594659733862924
0.08019011785750747
0.02925885253551361
-0.04316513695067004
0.009555427880475798
-0.1202813867944516
0.05774080080079043
0.03258354155467057
-0.1222253414672917
-0.02973681184450948
0.1337346180732057
-0.02273593296889958
0.04310750253177598
0.1157965515115282
0.07039925056528265
0.06008500173226231
-0.1477947063268138
-0.02038218070305054
0.03637334349861989
-0.1465211608783971
0.08071775844127484
0.1019912556753536
-0.142999966158269
0.1205325691879061
0.1355201245113289
0.08201532774214229
-0.1442546408603626
0.047822143555536
0.02828142455698988
-0.06187096820765686
0.1426573430153808
-0.08577197810438088
-0.1316808504898478
0.02191619541119608
0.02106292311617309
0.02787497070519018
0.05163377770298803
-0.07119616615641683
-0.08954148787983764
0.07940843623569627
0.04906702213877209
-0.1058068698066319
-0.09332749687290168
-0.05782646160693349
-0.140010781599075
0.1270708633919089
-0.1477413028805533
-0.1378050247616158
-0.04331042701066957
0.03863286976173189
-0.1343263080736279
-0.1125909303606445
-0.00937475867540331
-0.1273236557270045
-0.1420580539815398
-0.02385437026333734
0.1046914073893295
-0.1363123892742732
-0.1260322268474997
-0.01702716805368064
-0.0481833574819301
-0.1333748839718173
0.04720085384193849
-0.02986420797177787
0.03854131143937881
-0.08173622318158681
0.1480107627334123
-0.05982489958942774
-0.002932391204136439
-0.09153072270320442
-0.1304164764957032
-0.10386536733893
-0.04733759495305716
-0.07374397149483858
-0.01169084266838192
-0.03734791338785919
-0.09667221780245761
-0.009431316405269934
-0.02515293800977661
0.01001735518687282
-0.1207984467832364
-0.009479246083404518
0.04742642482622824
0.01982679468105865
0.0131970983292894
0.05536837084468844
0.1459724244177213
-0.03211149442107951
0.0690559815704152
-0.1300598025694768
0.1008613375252398
-0.1291275673834688
-0.1134351051885106
-0.0019368165402711
-0.008990880302997387
0.07510662489808474
0.06632596804589309
-0.01098082128957883
-0.1347182860992468
-0.08660642129211053
0.04748845356399588
-0.1151347607211837
-0.0404717886310405
-0.1498491415287597
-0.03887873221602232
0.09783736870057759
-0.03719705491661888
0.01444904998152006
-0.06159394784439073
0.0876500070736045
-0.1255335949713055
-0.03239239448792878
-0.07182923900980001
0.07189282985492276
0.1374344001931298
0.09136853679859774
-0.02273792569623483
0.1334075139659878
-0.09074348127783738
-0.103682817869672
-0.1466529782380224
-0.1398822977160487
-0.08281019378118691
-0.1100876647793165
0.008179893511431235
0.05819822219582191
0.1150189601187683
-0.07549413844267565
-0.1027825992334553
0.1303006741592198
-0.01210055973478619
0.09470585433054057
-0.1348340867016623
0.09742765163417329
0.09485671280178089
-0.02371281891768463
0.04526502033475089
-0.09234034211483799
0.1407362310638354
0.1336704762212434
0.1453083808041584
-0.1347977458514957
-0.04872090582749835
-0.07651957419073188
0.0870954658077543
-0.06128692208383555
-0.1351517150109409
-0.08564333363233288
-0.07788009775238117
-0.07589535011253103
-0.03932615136230651
-0.07453307599040357
-0.06577764782857971
0.02786365485650657
-0.03462074076972005
0.09240224568285152
-0.0639381230873699
-0.06960178065095179
-0.1330918928995225
-0.0167207221811268
-0.08930110663143039
0.004807547365691289
-0.07201486799028463
-0.07434323398926816
-0.04776478877425801
-0.1271589304103198
0.05215071775662631
0.1475001650350405
-0.06949859174294726
0.04288831084745726
0.1311702662636472
-0.0741887929486665
0.05809075162213178
-0.06755003884900332
-0.000708333735965276
-0.004813561177809343
0.02116303848789111
0.01413986194588712
0.05954291671376315
0.09328335202089122
0.08824459189351554
-0.1297831872422097
-0.1312500286680057
-0.1275322219879817
0.04808051070699176
-0.01587086839605538
0.1148696713121706
0.1341427646292023
0.06452739378193399
0.1317771741447496
-0.03257857774236356
0.1252244468977888
-0.01347073302589529
0.04535876588593061
-0.09896297695690842
0.08878145092232284
0.06822199428269332
0.1032126471332069
0.08629186773007776
0.1487307474177694
-0.003869627898197869
0.06749159121156495
-0.0754390676616004
-0.09577893478494792
0.1499168413949272
0.07382505369322524
0.04938448071637012
0.02107925466058015
-0.06200814956474186
-0.04105256606077427
-0.03561024315851702
-0.1237641683201211
-0.02086570873393597
-0.01689709453739887
-0.1013185501783072
-0.1227819587555209
0.1171986754383737
-0.1365081116798693
-0.1386625919918308
0.0317333602204825
0.1452874996578182
-0.02123901394394719
0.006965339013870363
-0.01810163582111834
-0.1257801710518201
0.05811186092072076
-0.07924467728131711
0.09246839790617199
0.01133098594144877
-0.1429483225580419
0.09119836645752116
-0.1425277913377762
0.07455856069895463
-0.1342263264204719
-0.08831769801201587
0.07448940555425156
0.08963245028886122
0.1111159549799883
-0.05438738443357076
-0.1223745736676377
-0.07998886536218228
0.05996483097867045
-0.09618907380327836
0.04918154619842068
-0.1068839808153067
-0.04745301665446735
0.07646435551392558
-0.139612703880929
-0.03392720706216542
0.08782482592977518
0.04214722651505882
-0.03854717860408423
-0.08331122816830508
-0.1007880879982279
0.09342693354411785
-0.0590982753659381
0.1073266510939462
-0.1358200506169547
-0.1166239758634336
-0.03131783451428376
-0.1287658877918873
0.1245782707901219
-0.02385107352917448
0.09579616425462892
0.1403648093357346
0.03786746792000211
0.02032389324903068
0.08000959686206201
-0.001075336725764176
0.1158646600383927
0.1075842138885504
0.06900075255337511
0.02592881269440255
-0.138521257916411
-0.03172843138415728
0.06906437031543515
-0.03599981720594342
-0.1052707110264627
0.07943577380798661
0.08016052475250553
0.1326551309240307
-0.02831466257493694
-0.1083088356341742
-0.1006566194587651
0.02089748590172621
0.1351046915918889
-0.00975132192153832
-0.02176073446248987
0.1492981110230545
0.02362710362003516
0.09691595446640436
-0.129445279286916
-0.001778535037428353
-0.07691592936759209
0.1163785142095838
-0.01140641923252302
0.1109589963359476
-0.01329352446160061
-0.08139789257257377
-0.04005359883657406
-0.04735311540857269
-0.1237734360449552
-0.1210055104598429
0.1285823226122307
-0.1123359771265464
-0.002741128455661858
0.04764295670145881
0.001758954459524555
0.04205773574379442
-0.02285425168877741
-0.06803728773723955
0.0247133800548496
0.09885648784640082
-0.02632070950992438
0.07408627431098663
-0.03024009679455314
-0.04124855459053686
-0.08569851455433865
0.09793984824464531
-0.04195812600501134
0.08789240489812536
0.0448285955786639
-0.02139638772904069
-0.06387396352188573
0.1179931841745552
-0.05497196288797412
0.07478099630159837
0.0789538135168656
0.08173776880453237
0.1433823404802858
-0.1110925793932251
-0.1156069082979145
-0.1304424194469233
-0.08213042305378623
-0.1370483379465233
-0.09269190719534569
0.0652284118883444
0.06067762896915788
0.0591294584838345
-0.04268382512623622
-0.1121521420004088
0.1411190473889891
0.1320630224803875
0.1366980592782455
-0.03522035615379096
0.056132030726056
-0.04355072142660936
0.07356266665282439
0.1204815428730634
-0.09554521317649765
-0.1183127725515243
0.0584437314513521
0.09936614681471424
0.01033666448683322
0.1446331886549635
0.06735932581003724
0.1053639430572844
0.06941383595880173
-0.00368654068432333
0.03710054306370392
0.06279650773517625
0.03522092415262987
0.07149495041067477
0.08241167829018631
0.1031339337497681
0.08448633445807879
0.1397473012033955
0.01836114745795468
-0.004843955276596422
0.04887352345754088
0.1256708924473628
0.03300436290895567
0.03992712850725662
0.1076707617822971
0.01966849340553434
-0.1452602717319392
0.0138902093581344
0.126185595698741
0.07839073502849356
-0.01562700926588243
-0.1193704484373042
0.1100624893730839
-0.1072016231163363
0.1299777368766526
-0.02958605919197612
-0.1125436656641464
0.0473750030399782
-0.07422792378227278
0.1068532203687956
-0.1063312647197839
0.112869985101103
0.0196490685345721
0.0788565530967149
0.03432897978202929
-0.04797227837087229
0.03199262272595415
-0.03113540126063647
-0.05817048438273859
-0.09958598890788201
0.1140309777874644
0.1407126337712224
-0.1239001910080668
-0.002953864053335908
0.0307133363935693
0.1338340861261406
-0.1332368731722036
0.03550182830416248
-0.002278308225335615
0.1429521569018029
-0.03609835113682707
0.1321078756275158
-0.1264045663533754
-0.07602006570716391
-0.1250718102208673
-0.1463951427938394
0.04439488406963406
-0.08761813909424312
0.05097361306558056
0.1201739313069756
-0.1307506387658267
0.09462728749863669
0.08303706419656212
0.03889380799651691
0.0235394712379055
-0.03264598430505655
0.1409131104136784
-0.09444952212564155
0.08623544478880288
-0.06718290994263768
-0.04397983246932713
0.05032509270794772
-0.07647806659876949
-0.01788275598915422
-0.1026276170055511
0.1042448821730189
-0.03403808045389042
-0.08587467611967751
-0.01025256695110937
0.1136844269924692
-0.09291501109925469
0.1036545766647379
0.09579117143025169
-0.06931581711178553
-0.1223674274600029
0.1207213832259217
-0.06572373123511376
0.0720173047235918
-0.1169004013502411
0.1352649988072296
0.04220618712352876
-0.09763607492094675
0.07992085801899475
-0.02475458365625881
0.09127096645257429
-0.04654520807868894
0.09265627204975323
0.08226686205354838
0.009083317946215775
0.02898694932413611
-0.1349142259382243
0.1151007529651284
-0.07068680362807903
-0.06138268001907629
-0.05278200302402582
-0.02332798626846245
-0.1071542280551927
0.06316231089435978
0.04081328805275884
0.03257279383638623
0.02683016969006525
0.0978581857582231
-0.01377678233128015
-0.02731859939048001
-0.1213978403114704
0.01391282233591787
-0.05658572968402213
-0.03716898264770294
-0.06413080515864361
-0.02353271303570802
-0.05191175899421334
0.1281512726927881
0.02889275782690046
-0.1219205915331471
-0.0465877181834484
-0.0298603681227868
-0.01846224242375889
-0.1039164965453387
-0.09757738165280185
0.1406426202927914
0.07509091106480495
-0.08247714053489134
0.1057433732579199
-0.1455958927029725
0.006140179446032357
-0.09703862990580435
-0.01891031319690418
0.04900238146027661
0.1161412866162794
-0.1280857894933251
-0.06837962037808244
-0.006988798751592661
0.1198135726782021
0.06787949402566536
0.1156843231403195
0.1484181693689932
-0.06820515175036405
-0.09089718727475923
-0.0386746169255639
0.01775373069930529
0.03564251097181927
0.05948409764537779
-0.004094996747605028
-0.08546473134097864
0.08756350611223072
0.09931728506894655
0.03470549200880597
-0.08088202183871607
0.1454164030369628
0.08714069444951637
-0.09024044671695003
0.07051215773472196
-0.1453345634021491
-0.1344911982698791
0.07491626503174949
0.01079178054829032
-0.08154547094727327
-0.09400734429086613
-0.09020411953500863
-0.1153885416991024
-0.07207983765847972
-0.008571622873922635
0.0276294655993718
-0.1022480627310278
-0.09068159640816276
-0.006671678933989321
-0.1038179656219176
-0.008867155229145274
0.05244255173133805
0.00750754012610183
-0.1411134246695384
-0.06191493743654104
-0.08300836222852039
0.00479157872255499
0.002620331222480321
-0.1454852838167749
-0.04593427750635342
-0.1127350191530178
-0.07637918189743709
-0.05049753287505857
0.1244442791970974
-0.01657694925166796
-0.1299753942462309
0.1291338371015777
-0.00104781731546289
0.09495853308819167
-0.01006054699423748
0.06742235464855208
-0.1490355152166614
0.04974745050992233
0.1020338129494497
-0.07111535287514112
-0.1088241725036987
-0.02033672145117853
-0.02336535494465631
-0.04951582987982535
0.1229707029990669
0.02278835848806719
0.09160270266376502
0.02543470364782713
-0.1196758218899722
0.1005194475178232
0.1135197662112861
-0.05269209403368134
-0.04470007833284317
-0.03387311530391329
-0.04813546402055376
0.05941988989218132
0.003465920385655907
0.02554891196803606
-0.1410499999257969
-0.022065679390014
-0.1410077072172461
-0.1210077318693547
-0.04293184242813467
0.007943884913023724
0.123950755386003
0.09700775699884479
-0.07463317185563288
0.1249152860021755
-0.003244938912449841
-0.1225993570744057
-0.09620006701266397
0.03793088872354983
0.007063921474415779
0.03043457804267972
0.1384309160003582
-0.01994115695187625
-0.09674796171327883
0.08006684851252129
-0.1445114124885502
-0.06642460572366818
0.03058323556584458
0.1190105431103197
0.0308912101578392
0.1358904765545047
-0.06485194370376834
0.1327609568338668
0.0453099249870318
0.08861656065034519
0.008311081891092963
0.05426415163290881
-0.08344911873966879
0.01730337467384683
0.08325641976355408
0.02361903883219652
-0.1247521498588622
0.05720722084269264
-0.02937335059017564
-0.04938531974301922
0.03212250670516979
0.1173324819086318
-0.02203311180261118
0.08586496770955601
0.005262853610001022
0.1350816668780857
-0.03364282793508318
-0.00625853571535071
-0.03486519073423929
0.01960823376179125
-0.07619269687039437
-0.02937390491337231
0.1031836280381231
0.1043905386954502
-0.06036336180305265
-0.01592516180403771
0.09028480022227615
0.02478727846163663
-0.03316299202067916
-0.01440104835871655
-0.03659616088801816
0.1251480898704138
-0.1101368968655061
0.02995472037231302
-0.007548535455739368
0.1231011956096107
-0.09644593900042978
0.0176741473169972
0.03030564176362952
0.0242004086143339
0.1183139950820776
-0.08755074983348639
-0.008417880888291578
-0.05367068173534734
0.1483716898590195
0.1468947183326328
-0.06859143707835648
-0.03527129254549336
-0.009361766725481379
0.04654388110923763
0.1343369413559963
0.06444553640412425
-0.1328300238041347
0.08752056925442095
0.01883607495987604
-0.04319338560718736
-0.07840459268931514
-0.04087912481784779
0.1315938928544493
0.03843182493522585
0.09471990601384135
-0.05500226511562226
0.0135805051604195
0.1345829299579295
0.1249524521990458
-0.1439680304350182
0.107702452716279
-0.121473788736143
0.02373128439007851
-0.01197080382237714
0.05272661987819087
-0.007954720667542292
0.05047844634413647
-0.1056912611497991
0.08837459759711035
0.04885013606345751
-0.1087965429568647
-0.1302168396209445
-0.1364211564820358
0.0318416903176539
0.06632704162799148
0.1479157848739605
-0.05371277327822185
0.08349391080978871
0.08542959182639155
0.1151176304030949
-0.1097034374444531
-0.1429682387006321
-0.07575582327589198
-0.128102475208278
0.04546417672907196
-0.1310359965921547
-0.03310474324184691
-0.0909553182502069
-0.1464530667739236
-0.05815229118249951
-0.08492334854552679
0.1112493859423554
-0.02962607991864256
0.08880793584455174
-0.05072141801972008
-0.1268994601801501
-0.06914678496268893
0.1497570283244164
-0.0825907213299492
-0.130772187505277
0.0486071643878739
-0.04138789738823623
-0.1109908276926255
0.06218109064361619
0.1404546608278294
0.10533801450177
0.06010179264010013
-0.06325834724738186
0.03883503218592844
-0.004461853510915226
-0.09813504570542604
0.07913866426289952
0.002569907788452652
-0.02389086884161963
0.1010361891943199
-0.1019659156221738
-0.004926865433774357
-0.08206855418722543
-0.0429212337326823
-0.00137993206799959
0.009779154630275034
0.02215541772179092
-0.04013054626534252
0.1301530748513309
-0.03903664657335573
0.05913065358805086
-0.1467556688580471
0.04179759557543253
0.05889043815098748
-0.07933710665876842
0.06104438095867837
-0.04248777171247069
0.02927562905441766
0.1000553538324569
-0.130301763946331
0.01973005508525765
0.05539336833422693
0.07980002869376913
0.1064717078378758
-0.05577159961954299
-0.07466182481714609
-0.1416633378675502
-0.1266329353566435
0.07790808297130655
-0.01555420670916988
0.1244032538376764
0.1259421674888312
0.1295189278570558
-0.1076653004892475
-0.06819467938023858
-0.02186218114411585
0.05211358402155057
0.1051734840755836
0.08800426990143168
0.03226354568949374
-0.08386218781021525
-0.002843670350595204
0.03552185485011052
0.1079522307672766
-0.09394095243714995
0.1061828238700725
0.01900137541546985
0.01357105693360795
-0.0145420856082062
-0.0309442925082679
0.03327173221532157
-0.1448122489584918
-0.1255513755104013
-0.0369277187114424
0.111659334689411
-0.03132252689841604
0.03840975145462032
0.119996887122216
-0.007956504984831077
-0.03368144598269817
-0.04555677444009813
-0.03355209599110905
-0.05774105826894858
-0.06615790130958069
0.008664752092053186
0.02514662616151272
0.06196022665523758
-0.08919003559733045
-0.01964774428345268
2.221152187234165e-05
0.09307253576207082
0.04659761703478333
0.147265779866919
-0.02131432069154537
0.004555389675709367
-0.09675864486886805
-0.06522703994252012
-0.1265235063903721
0.06681042602714204
0.07031193496628325
-0.007409316037230385
-0.0498455855360289
0.07550541412828175
0.01696737358112538
0.06315823272624801
0.03710001179328632
0.1356566307764056
-0.04852763891612149
0.006994548874747205
-0.02240099458008073
0.06777247561632863
0.1115028707057649
0.09409995301336879
-0.1399011355958011
-0.1045395460339154
-0.04698699741258352
0.03551607337965576
0.1076787477083806
0.01390772083455722
-0.1341034681637214
-0.04229642071479002
-0.04301061084985058
0.06248707245533124
-0.04499452673552423
0.08570227998500361
-0.08292207770140859
0.008346724659036743
-0.1293757870112218
-0.05932265607681719
-0.07471406380235884
0.09095096973122951
0.08314212907108169
0.02530619145165212
0.01632010153738113
-0.04980214238887409
-0.0613710032683352
-0.09644070867770561
-0.06399431854302637
0.04027536322359333
0.06070391616110857
0.06372514091060327
-0.04179194665197637
0.0223159445849581
0.008077214067928691
-0.0314623771275117
0.06799909155363204
0.1111006841489492
-0.1459265390943915
0.02568627743428348
-0.0249783791682027
-0.1299291363077471
0.1334098331501292
0.08199826956627072
0.0825457476773834
-0.06153141085265595
0.01781648293560284
0.1497247446419929
0.09691163064140287
0.03845391988345781
-0.05976381992305754
-0.1279734394344868
-0.02076729197962952
-0.1264919772695097
0.04756817319373841
0.1458223713558613
-0.02601180142882158
0.1362958395475542
-0.1005645126083813
0.06003823532216277
0.02661672129899194
0.1102538349547819
-0.025970912015052
0.1350717544486149
-0.01720354760401116
0.1321288890587766
-0.04639173101772257
-0.09921242830559329
0.09321667843660636
-0.04229393580559413
0.07650738969748253
-0.08173504119354071
-0.0222156789955756
0.05999366511124821
-0.1496383820754177
-0.08958703916631336
0.1485352715813317
0.01821518060552958
-0.08984635220660087
0.09543191379668974
-0.09331150795421916
0.0005945866131879783
0.1176149865525529
0.03605990772015506
0.02427152515051536
0.01530561116770444
0.0319052882804002
0.1482743493229456
0.001599807433801843
0.08144907225673295
0.05844913364950223
-0.1216294829657154
0.04182589144674893
-0.1174971765336188
-0.1364657870430806
-0.1252752992209398
-0.1352835670976357
-0.03282500602436485
-0.07462165085177981
0.1077958810550414
0.07473914072809952
-0.1481096159021444
-0.123959337461943
-0.09750535956041369
0.06184111784425313
-0.1236289535517843
-0.03690081858981198
0.06057353100505693
0.04479985210533945
0.02326926967619659
0.006037403063866032
0.1014952292905632
-0.126129878673763
-0.02628617020150934
-0.01250971133258786
0.04806975752579853
0.1389347424476591
-0.1304741088931919
0.0465946723691163
-0.009212491456052518
0.1012130706809522
-0.04484687177224404
0.01923922110645886
-0.00689188173904931
-0.01226925057868446
0.0327716741402448
0.01777774367980643
0.002397266003004485
0.1498755195768276
0.09333375979192131
-0.03959886877951076
0.07485750559771208
0.0954426956238863
-0.0133657053087959
0.1275449213467282
0.007483180080299801
0.01322366435230879
-0.0593560010704007
-0.08194494901763109
-0.09197724424067463
0.1139115332782811
0.07409478920095115
-0.1404807324942577
0.1377818155511198
-0.1021917879358827
-0.002859559400407391
0.0359541391710786
-0.1131709316489889
0.01676061665911573
-0.0674588862946261
0.02760509565022095
-0.03205130543142729
0.03767444490204191
-0.103136117239264
0.1109488082085104
-0.1247191156653541
0.07949332699836227
-0.02120264242266667
0.0279233759166316
0.07965132968018358
-0.07759114295597708
0.1383388772552548
0.004428890537905694
-0.1322118804525475
-0.02509833356349874
-0.01802202759627951
0.02532368321759193
0.1381745225459446
0.07268615371015776
0.09337846006017372
-0.1038059452380437
0.03655854648466299
0.01746628235787123
-0.09428580948385543
0.02423386361938448
0.06514344441348796
0.05271216796307038
-0.08977398499697724
0.1021679971610047
-0.08032866694514111
-0.007056085233137044
-0.02017399462413695
0.03767059249229291
-0.1193304867806521
0.02673398078267182
-0.00118882900624947
-0.0938798296121489
-0.04360875609141081
0.1278050904068417
0.08403831801031508
-0.1139225341211644
-0.09977337347798672
0.07239803691506294
0.04058868279242361
-0.08191862973939563
-0.1026242295990811
-0.127355179226657
0.09341929407949524
-0.1144227878654529
0.09534493420630541
0.03681419913526027
-0.06819736724795709
-0.01810483605082798
-0.09573003954912924
-0.0125112625144351
-0.143709150903577
0.1193984333343596
-0.1097461595922008
-0.08347033157471903
0.07155932147703885
-0.03991896611464705
0.05965118586185603
-0.09841147196545941
0.1477705451198443
0.09033530831352589
0.07832896305635988
-0.003414450610715175
0.1464710921964008
-0.1152939600961819
-0.02563445814759597
0.08048249772877067
-0.07920800826939611
0.02462242000379671
0.002937144566620453
0.1114118035128445
0.0927051031185826
0.05027393660063875
0.1340220329428972
0.03610076905553138
0.0858486469203364
0.07941102638347589
-0.07705519344986193
-0.1323161680169013
-0.088632184797261
-0.0228079649681169
0.005178927383383231
-0.08229931824856034
-0.05318092666909927
0.04566359324178824
-0.01555986882446327
-0.1313817544287917
-0.1442326209946687
-0.1058940738699837
-0.07978677215510363
-0.1464582425991344
0.1344412344435422
0.1485022681856594
0.0001095410697230279
0.130868024440897
-0.1167447107566477
0.1243592663057963
0.06128224113746256
-0.04603585232727942
-0.0009863390619282938
-0.08562913329136983
-0.08444889720270823
-0.05812811358278995
0.1146749258808209
-0.100581857926947
0.1278279508825893
0.05036195543212214
0.1288355029522382
-0.09905269758266057
0.06823998541489242
-0.109603987196276
0.0281955913539024
-0.07659055950370466
-0.04193008809721024
0.1249782600560398
0.119072352696741
0.09255439482748247
0.1436631057381924
0.1249020981951161
0.1366603209574988
-0.08612366655660963
0.1284438555959816
0.1211015552613426
-0.08758147565535339
-0.02142883775356638
0.1020138816218888
-0.05428418563878359
-0.0468982122358392
0.01342870913505541
0.04980723532681818
0.1022245103641068
0.07779673618912424
0.1153447803409117
-0.1059088437181398
0.04245743663749896
-0.1350311368132997
-0.1278632591841106
-0.05694159441950804
0.1440421409877213
-0.07691595676677113
-0.138701609144314
-0.115561846348253
0.1012796345871313
-0.06523048333601583
-0.00746522228201672
0.07631047362472641
-0.09611330020891609
-0.06491538842438144
0.06998760007321259
-0.1211936663702101
-0.07823286691132601
0.1338639336563013
-0.142791169884175
-0.1071567508950677
-0.1037559998749865
-0.01420704794409325
0.1448825699719054
-0.008001727777534046
0.0889231390966676
0.008339029531152464
-0.1081710951804786
0.04119313545731968
-0.06384794931573913
-0.142762832915799
0.08531974257683368
0.1286686083668231
-0.1277453429893336
0.1074564833927231
-0.07827298619238333
-0.1337032021413106
-0.1194594735137464
-0.06697459533669733
-0.09943169952840515
0.1316584628194802
0.01764166368963435
0.04313515583381867
0.05808293021712905
0.07164732480057098
0.1283319706836779
-0.02193355470005016
0.1005054906711474
-0.09983868582632331
-0.03800381100177943
0.1077556797572205
-0.05696999747630675
0.008278646859470129
-0.05642296891027269
-0.06208742764409977
-0.1497230810577623
-0.1174998299533035
0.09625160188705269
-0.107879139463361
0.07361130325242161
-0.1176539250829573
-0.1007040752368339
0.008952621043907816
-0.1389134339470944
-0.07838376882876445
-0.03353810635560103
-0.06718642013947777
-0.06214512233812062
-0.003048563511939177
0.01579122296684432
-0.01139601870283108
-0.02117741879596255
-0.1163660942885867
-0.1180646503661129
-0.1130327633875575
0.1053330626130724
-0.1396704691414118
0.01509949209406016
0.05583855314452135
-0.08950911174959948
0.1270956892855947
0.01359417586532481
0.00352081018827179
-0.01462567204824912
0.1071712639914692
0.09143341991185835
-0.01434875296631304
0.1396714340381657
0.03768502179891105
0.027772107570326
0.0633571017130078
0.07009326869801297
0.07713522085906722
-0.07764703814976161
0.081187843215487
0.1487499129021307
0.03882440560908263
-0.1359968746015787
-0.06333705820764278
-0.1141934615066477
0.02983485727168369
0.07529089542726466
0.01462666216948454
0.06347601563365944
0.1072462722460024
0.05161664341651678
0.01880907810703343
0.1175758031045905
-0.08328386448942306
-0.07535236874844524
-0.1219333518631446
-0.1061881833971423
0.08824186415329663
0.03158749569281353
0.02918614455460857
0.04526286035023997
-0.02713661011258732
-0.1353159234149969
0.03492949540918018
-0.139306283309063
0.04260651492038285
-0.05156655488003747
0.08080668247132546
-0.03025681938988008
0.02080417558122619
0.01199846242647548
-0.03150690662744777
-0.09037141894938956
0.02600158782489673
0.05515603530460783
-0.05454459334935275
-0.09415630239255554
-0.0195330422229753
0.1101048135944199
0.1193197132411039
-0.06228677011667134
0.01172145687123829
-0.01187120879156106
-0.0947109670120808
0.07835266063685747
0.06271447672250856
-0.06671141660969984
0.1221922579731319
0.001018286473591956
0.1149431768175881
0.001435553539281487
-0.103568585661039
-0.06203590771743837
0.01627294498787863
0.08151597638219407
-0.05132997045355382
-0.09111755599319822
-0.1200423601409618
-0.1205210537046758
0.0286256246169217
0.05076181544026446
0.04147740872179968
0.1471187181291723
0.1103903964908749
-0.08252100359300198
0.05227475329408177
-0.09415419699817625
-0.02667730598555753
-0.1172583212964575
-0.134049384839921
-0.05735759288415201
-0.02954498517226706
0.02767207346748193
0.08077119846398531
0.02574397380265593
-0.04389033429040124
-0.006452379215719361
0.1090996549274305
-0.07164092530572828
0.144565907397571
0.07404283174501865
0.07979462823355321
-0.1090026784031664
-0.1379930761121181
-0.05393242691826654
0.1225132979790276
-0.03932304642597355
0.004950017088535241
-0.1475290623016325
-0.00984410013064933
-0.116424358294543
0.05323275313863194
-0.1183847244526233
-0.1193209818163397
0.01360567578463892
-0.05091357756624488
0.08296911298901266
0.06946895263133054
0.07243499915228925
0.1157108239204208
0.0854195690878758
-0.1349225938715611
-0.0638342354045409
-0.03690835758434065
0.09584860459242418
0.1119097385378134
0.06920130826495648
-0.06060377462329518
0.07100939332554553
0.1475603829592282
-0.0660378673654226
-0.004947775069134208
0.07735501105308298
-0.02504054576858903
0.00705914895844606
-0.1265774160048819
-0.05253688365312598
0.1177307378191062
0.02836576109632984
-0.05006200135329553
-0.04210799773787521
0.06194824292880866
-0.146823556952562
-0.01047468914672486
0.09264260262373954
0.01679959253724644
0.08863761599112192
0.02561171547305385
-0.06373145497112137
0.01107261500371275
-0.00867746074622378
-0.1283118858832455
0.02615002113215161
0.07748830384923532
-0.01522024346758623
-0.02800137427542422
0.03939804224735036
-0.09601893534232812
0.06139485110128057
-0.03959256442710411
-0.09850364052768294
0.1453117232685878
0.1054079492420158
0.1288528095500359
-0.02968356217242944
-0.03748119067749064
-0.1476809574745973
0.06778919003800918
-0.06974508828471651
0.03069164374875446
-0.1322671200531848
0.03814691411710668
-0.05736011346213524
-0.1290906770057467
-0.1223277751693166
-0.1147175109780941
0.03770891553149974
0.1163098408218053
0.06089420449495977
0.1239774607000768
-0.02261754431418028
-0.0977832563909624
0.1456655748168312
-0.1464675231820287
0.1267395689469419
-0.01955000911441199
-0.02444457957393028
0.01910019679406182
0.03442049447039661
-0.1130741789770553
0.1295105193649863
0.08596878438845305
-0.1177187472013423
0.0849699593130466
0.06486435014420672
0.002599888850578175
-0.1025109267919927
0.0671819214352279
-0.07961163670890622
-0.02225586414052942
-0.05212557503504728
-0.06188035011629493
-0.1341093492975263
0.04051484203565218
-0.04096985890141841
-0.1064376853211092
0.07579685289267102
0.1467391007265526
-0.1401279897614586
-0.01330880723231707
0.1207169794283961
-0.01274462365155254
0.03890820497191549
0.1164787373386263
-0.009114055125828243
0.01866110768874511
-0.05312498491950295
0.1163673982774866
-0.1122643392659627
0.1312895544829087
-0.1466856333783388
-0.1327734582671468
0.06722170216891535
-0.1144721565581412
0.1021967067805538
-0.01785882670937287
0.03815440383254039
0.1497193105779061
-0.100665041563816
0.1085391512446478
-0.02256169350323645
-0.002848750795140011
-0.103353643087962
-0.006634333871574404
-0.1123076110405274
0.005680846408471099
0.03693034970006621
0.1135636795195949
0.002510162131003748
0.04681558689181529
-0.04974141698587346
-0.0267878515892051
-0.1158988668633062
0.1391061448827706
-0.06044479319991856
0.02479974312319835
0.007672180997011631
0.03633581592969237
-0.008880438035057725
0.04542330937461433
0.01762442890899979
-0.005600116646328547
0.06265503831128044
-0.06517612515618446
0.02991511965739118
0.01482671058402448
0.06691153962565656
-0.08198146598698593
0.01449702656717688
0.1161682048151389
-0.1234659524406985
0.1420144857627182
-0.03662338618203704
-0.07676498889144757
-0.01467887412360293
0.001017895860708773
0.07889030422875559
-0.1278419875765557
-0.03553037554975219
-0.06867312381573751
0.06895368082020412
0.06464221292807253
0.05443743110044605
0.1029187958741481
0.05364467678593185
0.1438901491256701
-0.02228879818548013
-0.08869858150926677
0.03021953339204091
0.1188210456371874
0.1067034279445975
-0.1021618431396136
-0.03677304130258655
0.01932683411740635
-0.01734861489125797
0.1430801834787748
-0.1158615185780859
-0.1004573269736996
-0.08889338539348299
0.04872309560493089
-0.1342014796702017
-0.06230067030648924
0.04064355803436046
-0.02098313505658309
0.01084396207227354
-0.1241807789406198
0.1300220128534622
-0.06027853699569666
-0.1020318432615898
-0.05553759465529799
0.02094544556624037
0.1168117713959942
-0.1410173662430688
-0.07474065438133694
0.06971274727010762
0.06262692365167868
-0.08084915586124811
-0.1025530384738708
0.1239358589967652
0.09935417186904427
-0.1337664554751322
0.08061971484246649
0.1471593711977635
-0.02058301275520482
-0.05007204564842191
-0.02022209611451612
-0.02750712824791087
-0.01595643384800125
0.02929876387914645
0.03360906722048086
-0.1173230772813277
0.04498918479863591
0.1212405095607999
0.07321742615010951
-0.1260043736274628
-0.01791907454164078
0.0990301842024266
-0.1459947611851045
0.0717175129587363
0.1469530029381544
-0.05162160787307372
-0.05742956411950598
0.1137935451517751
-0.04266427755014239
0.01780149511424894
0.03344274320799984
-0.1300451667886438
0.08702573366876805
0.08091795780165947
0.1439229677343332
0.03634729079192722
0.09718623102920282
0.07458906077932115
0.03353412304950341
-0.07339844379087185
-0.125572234181431
-0.1367685912179387
0.04899942017678607
0.008475227406375472
0.0425241287762877
-0.06741415742664325
0.04113505966548579
-0.062497421732404
-0.09614198747536074
-0.03562362831240548
-0.03845173611329967
0.03588102652165526
-0.08666533796892749
-0.03457013321321929
-0.04252937305370781
-0.08974711328733112
0.06376983178982044
0.05000795477025292
-0.1260022045817771
-0.1288540678380592
-0.08216575877350657
0.05744723932894015
-0.1089018631646659
-0.1451758371018526
-0.0117274490591804
-0.1150350912895341
0.04105227157338821
-0.06462685787111133
0.1094548689478333
-0.07549659294332219
0.01187919981865174
0.1338826693053742
-0.06226568441441414
-0.08912170995409024
-0.007643027907149061
0.1302576602552762
-0.006535447648044412
-0.1165086752113461
-0.08223900396015447
0.04726521903521625
-0.002150524044688599
0.02927591627494536
-0.06691755441965723
0.06118255065457162
0.1446929378294565
0.04057572839146054
0.1214482732566594
0.05848331435171622
-0.05935105114507053
0.1454837585695268
0.07965888516639721
0.0084723884060892
0.05282677048948909
0.1206459835966332
0.01313333984610313
-0.108891162909051
-0.1443877484256769
-0.0958065218822543
-0.0234835170441923
0.1151037272747472
-0.02131190665197654
0.138366654403039
0.09895440321084627
0.06643862425649306
-0.1007458783328649
-0.05867827546150804
0.04669433827771855
0.04271612281587896
-0.02512959355909453
0.1145076665613095
-0.06000175409530007
0.1226645720682232
-0.006319187421500299
0.0230494894893139
0.03378153302882869
-0.01164834823536143
-0.08639896401967805
0.005199795148894082
-0.1031945537092139
0.004165358913208061
0.0006200574923999509
0.1263858147938594
-0.1374576811486599
-0.09656196129234025
0.09702390220343315
0.02567729324832434
-0.05546345263973971
0.1026242182835118
0.07986002370242962
0.0710174365998327
0.06767940303202692
-0.09145383906618404
0.0593774728418851
0.01661700885794012
0.1249665597448122
0.1086163298786073
0.1079366597793284
0.02166251554339153
0.001334433538891099
-0.06728804891622911
-0.01384807837205475
0.09137176090001893
-0.09458627573870136
0.1298699072942543
-0.03565549742614652
0.0890860920051882
-0.03187616564230898
0.02794589672909446
-0.05570569369276319
0.01492318253262116
-0.1178958704079948
0.09489524622675742
-0.008673433681676878
-0.1053265186499547
0.1483650939126789
-0.06163815950276683
0.07032384081576745
-0.05713016017457482
-0.1090457137650943
0.0001820867549168362
-0.1361081788105945
0.1086539083552276
0.0587521829978826
0.0732750261920955
-0.02475411839538911
0.03369814845905552
0.03187079019000325
-0.06684274199271703
-0.09464397719136546
-0.1168021920847973
0.015865148338011
0.04147296368407211
0.1244787109431246
0.07116705692427562
0.02119493669420246
-0.06118355435840019
0.01026156808261832
0.1393126729360375
0.1167552164600953
0.1045558743898551
0.004285779517614654
0.1488764968934053
0.0494435145834716
0.1455444392146751
-0.1064017877624847
0.04785094040538209
-0.06609763575215742
0.1138956169616039
0.1406335808293119
-0.02518881842269972
-0.03598179462644355
-0.1454894789939232
-0.06649269868522907
-0.1271427693617502
0.0778671414982345
0.05879884325994841
0.05644791471140827
-0.04036422296909811
0.1418429458475872
0.111791494890019
-0.007155496289465893
0.007701988717379594
0.003240652062978383
-0.03268230521602891
-0.07113591885247077
-0.1255847166178677
0.05612139907019278
0.08912564923014756
-0.1362720436818302
0.02287661539058974
0.04368152362000268
0.01796381178682846
0.02173596130299195
-0.05686735590308317
0.01350076839490828
0.06524339048901731
0.1409131488082701
0.09738497607813591
0.02908877439946513
0.1315558168545662
-0.07781055150903211
0.1431010032448271
0.1360840147113182
0.005647197599496999
-0.1341558324564974
0.06381580960648871
-0.08570059641995494
0.07229208225491089
-0.1265484133626094
-0.09385765071206616
0.03408357700523156
0.01627782926255738
0.0638468577679739
-0.1127029782445978
0.1335946165693762
0.1426993315602897
-0.08828079278500787
0.03970418162164474
0.0818291040285626
-0.07455283646683805
-0.08738558582879803
-0.02447353570651515
0.09341040565083306
0.08432109386808337
0.06864327160578372
-0.04308825642479968
-0.0004398514751530469
0.05954999267568345
-0.09570443356385332
-0.1213458727274408
0.04109863600348593
-0.02355142007164349
-0.1282692544061082
0.02714111706108837
0.1320620977236247
-0.1124250868626056
-0.05904307347212129
-0.1036384988360286
0.1098669953923053
-0.03559148683473071
-0.04742604570713978
-0.005978152643542006
0.130729413561359
-0.1336036274424543
0.03127202769886791
0.1142763291502344
-0.1409126060845332
0.09296998284815673
0.003973306461224946
0.09087578292976869
-0.1315791330214492
0.06655410333376104
-0.08361358970106282
0.1118318422985411
0.0008708615092890782
0.1350296820444193
-0.08125641412625853
-0.1495689901055624
0.04457967458040438
-0.02698194220521578
-0.1208968752816766
-0.06428561712990624
0.09952649484136711
-0.09914983040835822
0.1128110857972927
0.08152853708319764
-0.06162698693183575
-0.09623198767482861
0.1279017476183194
-0.1017551709087221
0.01820374092968018
-0.06955605556854687
0.04219058071830802
-0.001137132081732689
-0.05326288733783312
-0.07655492319099369
-0.03686800724215247
-0.04421620857632542
-0.1335812197456049
0.1171052993587709
-0.1033404630952311
-0.1151603471444403
0.03365943640870547
-0.0369540322391308
0.146671489531487
-0.1154697360775758
-0.05192433344289863
-0.08458492473446994
-0.1150387260434398
0.1426553411375057
0.03843313306031428
-0.08597137170656183
-0.07166791407318804
-0.01210263328689714
-0.03517784215854752
-0.1088625985928191
-0.08057189049691517
0.05319974129237221
-0.05509559214352424
-0.1026818522497461
0.1014441207807225
0.1130853253865874
-0.02227433267221164
-0.006385501137903479
-0.03805619887451463
0.07444914897179658
0.06707540714045772
0.07507579402303129
-0.1197670596045289
0.08349418739485283
0.04218109324210373
-0.07310748539078397
0.1183338346277987
-0.07415950434476114
0.03993849926159648
0.1150053241592857
-0.03955342931274988
0.1380814599599579
-0.1195404738161426
-0.004608777599912864
0.1306615558147415
0.06886048650386935
0.05936268848308511
-0.09099416067793975
-0.09324689509498275
-0.1258126099481306
-0.04986878791817873
-0.02381878559189793
0.07738713134424163
0.04503561993829703
0.02349936215835594
0.02882688081768662
0.008116553145515071
-0.1487886015320144
-0.1275427889905603
0.1200603544106988
0.07566054743978219
0.08953261828959576
0.04513614829403168
0.1058934878352533
0.02304290522808357
-0.06264308918445013
-0.1171587564083993
-0.0086072237005309
0.01315773705167589
0.07272450170606583
-0.04363403580786383
0.1235284967690373
0.06073866752476369
-0.01321363652274647
-0.03113946969673945
0.04140817420157052
-0.09436010417731484
-0.121778807869078
0.1004029907520874
-0.0376069992722976
-0.09759141781720865
-0.09946579730578969
0.08857421527550285
0.129795713527033
0.09556982263250734
-0.03792642270583959
0.008622594344719603
-0.04631362422197761
-0.03671498929427563
0.0310797843902409
-0.076253275457958
-0.1110544767980717
-0.02938757649594339
0.1188828783430545
0.1448390110371816
0.1436392291885052
-0.09379988040020684
-0.1223749866580474
-0.01500013077864429
0.06935785665146905
0.1003495151877168
0.09136583341349187
0.0428863534205064
0.01108818257278212
-0.07184780324895297
-0.1382531164159314
-0.09750364336534574
-0.01620790728656943
-0.1100319241453111
-0.1471006526132583
0.09618509344113296
-0.05762334196251972
-0.09656138316340007
0.03475924171502719
-0.07780752680398277
0.1489930338149072
0.1468328860107962
0.08079496590923281
-0.04731025150851825
-0.03988213836675609
-0.03812522887630632
0.02643647854050458
-0.0009366151648278476
0.08248719476744869
-0.004680643256139305
-0.006097604127646233
0.07612642381625551
0.05151947634365384
0.02152740921430635
-0.08887370710208718
-0.02912266714457547
-0.02812307573767522
-0.1475078738282937
-0.1362363138637675
0.1329651068351069
-0.06935567707724667
-0.1244953359092666
-0.1145375357245248
0.06443761814803593
-0.08451212597021655
-0.1116391891434971
0.01062150907731684
0.007855303752168684
-0.0582056390625451
-0.1046191824854441
0.08002767531668194
-0.05920226634908572
-0.1077862966143462
0.01082264108621637
0.04348748214239603
0.002331565158596071
0.1226974123496084
-0.08007603945679777
-0.1486050501459301
0.05518460697735875
0.06524331728706291
-0.004702654273576412
-0.01868896934608414
-0.03323720650898163
-0.1331752450592701
0.04244507274586441
0.08765508016201291
-0.01128379761351054
0.04493558782248377
0.1014038126223738
-0.02833321396183838
0.1255737726462883
0.1269143824823733
0.00712824950792279
0.04001018828247217
-0.1076069719426366
0.04548906036442567
-0.09936830277990936
0.05024833194923045
0.1372834213018806
-0.05398748526535346
-0.01972399287378601
-0.07191884504720515
-0.0117737817400013
0.1410986483521287
0.1215686370951909
0.1405577834185947
0.1137960605620388
-0.1085074023616069
0.1435874536172605
0.01898127571281967
0.1067348732218638
-0.01274946612650018
-0.1497094735218622
-0.07650191422897086
0.004074149435810624
0.04272913057443938
-0.1388610700539635
0.1427753554870954
-0.06234247097466152
0.1125426681017201
-0.03555627715747166
-0.08677035038349938
0.08945718472730252
0.1215709639602788
0.1032435009653485
0.1318483552535359
0.01706114730952935
-0.1461259000538179
0.03209945050621141
0.004344966699114764
-0.05011333702310115
-0.1376256008747519
0.08242609333916401
0.0881137488428488
-0.1465268074898711
0.05399386494675604
0.07867101418439719
0.1172449619026588
0.09547336843344818
0.0705975782993107
-0.01377509491706554
0.05220775337317225
-0.09214947817443683
-0.0134695361142317
0.1257160479403288
0.06194799135945995
-0.1207295130119698
0.1368599489101739
0.05472493258979548
-0.03307821273730629
0.09937789725926108
-0.1308418412540651
0.03016602600582793
0.03886281476745412
0.1407391744277404
-0.01660169267341969
0.02070744213570376
0.007793018397833815
-0.01274774740544221
-0.09720097976090804
-0.1378587485033951
0.08712596299671577
-0.08485587728756883
0.09452603914268423
0.02523530564534015
-0.08137146439351411
-0.001458878930779199
-0.04607875686903661
-0.1140995459141002
-0.05595023729690569
-0.1254286396133518
0.02217393669977948
0.1462716791380753
-0.06757344392750426
-0.1413042490151187
0.1219797556697144
0.1443797495525634
-0.1120277735428806
0.1088373906172493
0.04911207803538642
0.004899666947648859
0.05825548853144934
0.06828584048050193
-0.1149233912840263
-0.05288500388845472
0.05900242849778367
0.01846123740081862
0.1177943712666487
-0.08320006262771845
-0.1442624087872282
-0.1293901972949867
-0.07103780238320891
0.09291724375666303
-0.06421455880668922
-0.1264801397745664
-0.03183127635791239
0.004448596413481989
0.02210535156893313
0.07215065262311125
0.0403896278244719
0.1161438212306523
0.09671698974721314
-0.08743409765964356
0.1124256935646306
-0.1208395224362462
-0.078742457689576
0.08439254980841185
-0.1264443834381347
-0.04073422949077827
0.04326981589869718
0.07267344594810765
0.1141764432687583
-0.04847475776809639
-0.009084546292824567
0.1492293675107033
0.04860859458805016
-0.1000492870248797
0.01773186684086618
0.01644858878032975
-0.03319883215486118
0.02348835162654682
0.0370739735737001
0.04576154796962559
-0.03360009793070159
0.1228901229811867
0.06932162238253357
0.08462293778295764
-0.0226157814602441
-0.05857544835124884
0.006773307557814627
-0.1322174684947023
-0.09242846714050408
-0.0465164503759949
-0.06965134005046046
-0.1299981040786943
-0.01734732183038597
0.001633835142307849
0.1044197623380818
0.006207952218494018
0.1109052431467606
-0.002308793536800638
-0.07111855195190595
0.07509583940103649
0.09921284860820094
0.06983571318454078
0.07433755867275192
-0.00215712615789255
0.1198262043467307
-0.05791561296763215
-0.1356980741090085
-0.06337988534718822
0.1155686755646053
0.05140179091334802
0.13239773852172
-0.06799016638583368
0.02431910268073862
0.05172529906274006
-0.1333541232549372
-0.148279425780419
0.1431699800738925
0.02341627877830353
-0.1305287724407072
-0.09927825475905504
0.126880239437157
-0.05018160592331785
-0.07929666370091353
-0.04048517163781119
0.1014440490798887
-0.1248677124250449
0.115767332557678
0.0623876493075925
0.02285954921639828
-0.105348555201092
-0.01252035198850573
-0.02792407119550001
0.114495020622618
-0.08816518259149285
0.1199028579422288
0.08430123675174701
0.003906607747214495
0.1342423740341545
-0.1290331825982002
-0.03046720795355141
0.03568060588356135
-0.1466093765555924
0.05155224598067042
-0.08997744449485989
0.05513459808036622
0.06819452999596726
-0.08827567727097901
0.04829220331053485
-0.05839565113384529
-0.06876983755631499
0.09905222889878046
-0.08147869784838234
0.03108686595183557
-0.1301985419806034
0.0280814478537447
-0.01743175232197705
-0.105028954034219
-0.006151193685900047
-0.1050439668141853
0.06782931378587982
0.03849958511757967
0.03243644577091723
-0.1100938103907247
0.002994834516660705
0.09427035620634926
-0.1401598550799116
-0.06268064698578484
-0.05179699136946355
0.1440909462248491
-0.0417099323256736
0.0677201427855203
0.02976204230173108
-0.03832609059059628
-0.03072047235110761
0.0897548011380722
-0.133226605440825
-0.1125389983409221
-0.1485007259245788
0.06511936109285772
-0.02088838143781217
-0.06722940449473885
0.01417257080980231
0.04762362435688371
0.1138428298032071
0.03396257165369124
-0.0742898020774363
-0.05357677832388417
0.07894966409924735
0.06956580205441
-0.008623677311420629
-0.003228615729725084
-0.04193657573611572
-0.1261848014665748
0.03667707849122789
0.1110260760398438
0.1180552210448515
0.04649262470410954
-0.1016489154962707
-0.08370987010826816
0.04062059982243021
0.006666339587730508
0.1340265230201308
-0.07960069041214914
0.1183436170072964
-0.04668135298261481
-0.1398050190833421
0.1351567667097941
-0.009193041599375623
-0.1382773232553903
0.05027359049890177
0.1199239976098407
-0.05550121618690956
-0.08555112208032567
0.01755894421020474
-0.09164472042659517
0.09842373242062692
0.09327533866431348
0.004780023011742185
0.0273695148735545
0.01284005434869392
0.1461606554756177
-0.1258542055851547
0.1208936416891517
-0.1300355255047368
0.06081503791609073
0.08196243012768384
0.1380235441802075
-0.04269776629869936
0.1303080517078275
-0.09567876930332221
0.1479685161007771
-0.01299200985881716
-0.1116172252708527
-0.08163197019240306
-0.04464495409962019
-0.008301341281412787
-0.07143446925163012
-0.05948800794290751
0.1324988815305709
-0.05971655824046231
0.1407853743590094
0.1024288084623763
0.0347908621766174
-0.0947624755082507
-0.03000753093294996
0.09315135217168821
-0.1463439174695558
-0.08673871619472624
-0.05207805814685094
0.0310244693255368
0.07610985740372439
-0.05591153772823119
0.05517633599470199
0.04701541163819628
-0.03593758043432761
-0.03400394225944289
-0.02103168070114514
-0.04788145374752246
0.07335512103669119
-0.04067409550336846
0.006482139582038926
0.07132636128055228
0.09633733338971499
0.04486215114354255
0.1396969109725658
-0.09830762084960361
-0.1134490252417021
-0.08174987075317071
-0.007801068485898932
-0.1309409610843983
0.00852453908815584
-0.01703733622617377
0.1214783164709863
-0.1066782877093691
0.03822984746109221
-0.05849913824745413
0.1364964458097222
0.04189075682865956
0.004727930299205652
-0.06561811876444054
-0.07711630191613363
-0.06915194857278198
0.02851271339622919
0.1280976347988926
0.1278954486259704
0.1425780055078575
-0.05590661310807843
-0.04313169911832713
-0.05530074026923931
-0.132550541626116
0.06620216817418213
0.1011887958511658
0.08878359759169799
0.01253950142419874
-0.003949053005291647
0.07848050842456543
0.06423188071429352
0.03261175671713973
0.1467429501455011
-0.09356374821791599
0.0516836042058112
0.00529911064323928
0.03942186942954949
0.02318229306128307
0.04864421613823641
-0.07234959900667466
0.1146757047552407
0.03512868945897529
0.119542674001284
-0.03054598396167459
0.1195684709444495
-0.1075291747495202
0.05034156511553636
-0.00191881579901968
-0.1294315399506276
0.02823701360180834
-0.009340810430860524
-0.03532942467617309
0.1351097456261432
0.08536045216165802
-0.01788066306350979
0.05130766622611831
0.03655464168943216
-0.07908859091302781
-0.08614505340165693
-0.1173944114555579
0.1493794035276415
0.128074728550732
0.0652092810667929
0.1461264862827571
-0.1154769209052794
-0.03309905053260693
0.001433978160579663
0.07395200139095634
0.1400901584808781
-0.09991712470736652
-0.1483909313754213
0.1047851352985381
0.08522597213053421
0.1211602974548751
-0.07575568748906053
0.05479444293528537
-0.1363688772946451
0.1245858776264758
-0.0971243730034327
-0.1158004172452727
0.002789862307466075
0.04349799136603267
-0.001165395398408857
-0.01209257377421937
-0.02111169995600783
0.1309868900226151
-0.1107546277517875
-0.1345571306361973
-0.09809062119950103
-0.04689343985956788
-0.1019391073621526
-0.09869870368796341
-0.06880661268662969
0.1132782380391277
-0.102563836170623
-0.03428353359190912
-0.06982081263317763
0.04887014212965506
-0.1103315323406512
-0.07972937651431625
0.09893858674741227
-0.1087271380072674
-0.1249571483558059
0.03417005225973346
-0.1375604640168885
-0.0507022794805012
-0.06102769091307544
-0.1239293413115336
-0.07612920167967277
-0.008167412784898491
-0.08973770402034621
0.07670322939631651
-0.1146172473508014
0.05914039966144619
-0.08535734267689163
0.01428341505317178
0.04013836937497293
-0.04610572913480258
0.02973871914657703
0.09204774817547191
0.05700085414049167
0.07779922106735968
0.1433490449483563
0.1381942187319387
0.04107784982355212
-0.1092147916831145
-0.04608931527290928
0.1212570373300728
0.08965535044654056
-0.006420847613560432
-0.1084723393239418
0.03860724474704229
0.03485871682674418
-0.0834213956115659
-0.07721316819972042
0.04729903110191888
0.01587878906441798
0.01175742012530446
0.07336858586565059
0.08976238721039256
-0.1463987048381576
0.1336352456030664
0.01646490791671526
-0.1110168505623516
0.04277922697029041
0.08111153362836293
0.05327152391116672
-0.06708240379443504
-0.114994195646138
-0.06698975708195462
-0.1250346557586615
0.09200663535949151
-0.1391901452975302
-0.131685611271153
0.08020085367849135
0.05188770466572033
-0.09092686154536567
-0.1159189019444318
0.0231048222318559
0.148727011803753
0.02768983793391643
0.06467175700558518
0.03736003957805786
-0.08744939005979362
0.1312534710770722
0.1101473032776952
0.1098470088838818
-0.002867739858509855
-0.02809527673669871
0.03321559460983407
-0.06310535278781566
-0.02448992066760078
0.0168544219186783
0.1033635235174389
0.01449818819039416
-0.09036635125072968
0.03447505700610347
-0.08223028803813751
-0.007448755045164723
0.06948086149966384
0.0007613511085671262
0.0175108256816271
0.01148000384314433
0.01157742804407488
0.0358309780647191
-0.05831164974175004
-0.08652248575190198
0.09493057525014999
-0.02420011147586634
0.08662225610419282
0.09368552288212141
-0.146509420823543
0.001294658496647461
-0.01895228501826165
-0.08396033911684543
-0.01745187056597875
-0.0588049818802648
-0.124113330372662
0.1296803895755114
0.06309974138303646
0.0591022642371721
-0.08342496335200265
-0.1113901792845643
-0.07404331384414961
-0.1300614658344288
0.05310779981878204
-0.01440966564928071
0.05441361717153976
0.1208777208676924
0.1281415799996543
-0.02610552146849479
-0.02834232439209815
-0.004341830804171887
0.1353819752509622
0.1332474853299779
-0.1185108528791512
-0.07292967449078787
-0.1032750005616224
0.1264197225106972
0.05287021403334578
0.1333472555425704
0.07010524525312019
0.05636079320980272
-0.01535808610048055
-0.09884703990483985
0.1224004540929573
0.1171900434732391
-0.00765202164540627
0.1482870626635721
0.09686672204017761
-0.09455449130714272
0.05738444167834341
-0.1365545304429505
-0.05594245968663249
0.1333460741133178
-0.1166159704172127
0.1471655492191974
-0.03106359112125989
0.08779764675432707
0.1180432699471914
-0.05292201126130392
-0.08830787485386611
-0.0602990544449068
0.09273615793452418
-0.1029258996029039
-0.07705156925462725
0.1242253051950714
-0.0258555740936918
-0.0303265696765513
0.1006450275660702
-0.1229853602000444
-0.04697931427367931
0.02074756666778473
0.08337575349322465
0.08766453551727645
0.07190596898664169
0.0557758871027156
0.05485264309907922
-0.08574878901045248
0.05406301082301095
0.0017230758684329
-0.03030106927282226
-0.03854760135922004
0.01516854542548236
0.06375647104054524
-0.05520152738560063
0.04855257514796805
0.06092202025974264
0.06373488149313948
-0.01364977823740326
0.0289652900672356
-0.1391871297681644
0.04804234704842901
0.1186662356223288
0.1035490281663598
0.09511644744552505
-0.1083899524406691
0.07776197077529531
-0.08074926296658058
0.0112752855330524
0.02841936064810461
-0.05372448698790953
0.114308782417471
-0.1008303668121017
-0.1203490539781512
0.05197138204331109
0.1210728661022488
0.08542683326426281
-0.0431759749973081
-0.114675923047902
-0.01051015605242464
0.1085471010108232
0.005023007679275715
0.1009422425883553
-0.02628435370339284
-0.08122052128017904
-0.1042592849369437
-0.1277317786951232
0.1297014989795636
0.1094755965561958
0.007773857708144358
0.008666910915402842
0.1202883788574834
-0.09333856697142676
-0.02266723849218107
0.07383746606814272
-0.1482227058076645
0.01894765270256695
0.001611776920890097
-0.07896189574683055
-0.1197642214597678
-0.1199688278676906
0.01731355681406036
0.1445444595963767
-0.07079917905014528
0.04696455523710704
0.04651591157139657
-0.09972639130228683
-0.01760860061288591
-0.1466599915064559
-0.06440196866317664
0.121881253024946
0.1118870929713069
0.09062080556222239
0.07282348129085731
-0.064397283923984
-0.1405996327424099
0.1185642035275888
-0.0421289881195428
0.1391010850155268
0.07804043990658927
0.1164896290195718
-0.002227735518066024
0.04832929540613212
-0.1268488615858844
0.1251018396889585
-0.02783332277690277
-0.1250726810011202
-0.005950610947393223
0.1237775708458484
-0.05403456512676615
0.02428541258078248
-0.146191003339055
0.1132789372736935
0.01882997009257742
-0.0669905748309953
0.01024328951647134
-0.08465451310651936
-0.01671424933046005
0.1426345348547738
-0.08131041684087717
0.06888126467904801
0.1145177844784989
-0.1194260340353835
0.009502469920802781
0.03734023587338179
-0.03382125706180078
0.01890297046856563
0.005903029455506496
0.07404649235017992
0.008006246129674301
-0.06605614167122609
0.04053589789041528
-0.1442276835956768
0.1322723993986554
0.06369002654896042
0.1308774508339895
-0.04555762664111655
0.08861510064014058
-0.02507814325869758
-0.0717847334053536
-0.115420726979711
0.1492062781301283
-0.06797573774331041
0.1478581634115482
0.01803782346758655
0.01503386459177407
0.008104011192859762
0.08338438802616292
0.1483178806883084
0.0007384431216468298
-0.1479272866593154
0.0672018354649464
-0.03474301666059051
-0.1173557535161436
-0.07330006245167223
-0.1474070074146499
-0.001181472616036174
0.0956039459910433
0.008496607589651308
-0.07713718520051806
-0.04639300587255511
0.092443529378475
0.1134007545767254
-0.04062145802201574
0.07471338548305359
0.02708512402716434
-0.05974478569742234
-0.1208451318530187
-0.03429793874364247
0.06517780331048659
-0.04263144017523651
0.0002774780965195731
0.06438429102810407
0.03939208824040618
-0.001863032403551777
-0.06757779165127863
-0.09557535484796716
-0.1437598854733397
-0.134195904243694
-0.09725695805017914
0.006974203441016881
-0.1321227399507793
0.1199389258262439
0.1222266760765538
-0.09948434708632233
-0.1033607615598381
0.1248193710459486
0.04933228576524754
0.1422420859300727
-0.01668354704355986
0.1221968804045072
-0.0541500314575602
-0.07424200314931596
0.08559440017450919
0.0552263290180016
-0.1495295240541592
-0.0373209426586148
0.1454785640796081
-0.1203785678118401
0.07837709520811233
0.06065398984746247
-0.01301210565764908
-0.07134621087953678
-0.02496227244246543
-0.1236213958001084
0.07679122284530443
0.05745872125070611
-0.06919601690576463
0.08302653756734447
0.07326368169392802
-0.01645625379572082
-0.06000229699905075
0.09113814968598691
-0.04651774585834452
-0.08777794917048563
0.1416529812180943
0.0001238532213728635
-0.1129564333671505
0.04098549242642965
-0.007633058148265381
0.02036033718397856
0.01318096651843793
0.08821481660148485
0.0961166544206868
-0.05122377160263352
-0.006555838735373653
0.09658958523246861
0.06145548113130356
-0.01108035594269995
0.1262136735516785
-0.01016858985343206
-0.1004261316972594
-0.03680251832889765
0.06848515963228358
0.02461147153499138
-0.01042381839846438
-0.004726190238597894
-0.06792941620476982
0.07037819494674373
-0.07170126949544961
-0.1446656626494561
-0.09607760827376728
0.01829694019085586
0.09647240245084855
0.00740920377774592
0.08052145351214403
0.088125443140357
-0.1424661034255976
0.1175663727390735
-0.02088862894659442
-9.846536519921889e-05
-0.01207106070138272
0.1422929485549413
-0.06188224967188528
-0.06595466282511774
-0.0589321425145428
0.08155894786743637
-0.1193678570346244
-0.1474782651744216
-0.07952287855070218
-0.1431587185678811
-0.007646856157876025
-0.02994898540247126
-0.02996118533716318
-0.08916171975577465
0.1446624264304559
0.1096150240672822
0.05611219588020452
-0.07326698099415142
0.02999440854415036
0.1344105127788202
-0.06793043250694639
0.08391885304605724
0.002707765344538542
-0.121459707285449
-0.05867161957964909
-0.06677033164104354
0.1166686380925677
-0.05113799796970526
-0.09920581346823856
-0.05422347825404952
0.09876662643402986
0.0387203808821367
-0.06193121984225288
-0.1131210360038658
0.1227637915745209
0.02913600772320152
0.1184394688921489
-0.1466039658206691
0.03165869782952441
-0.1110859942878836
-0.139762973263759
-0.1259881837844262
0.00896395876067483
-0.01972532124479211
-0.06515166679196251
0.003625192998709164
-0.06010915887497906
0.1409616825153981
0.08036040786459417
0.1198851423697339
0.1253732488558982
-0.1375726346799976
0.05380370211964645
-0.02191949704285688
-0.1090326328105445
0.1451316373865733
0.06130987145533313
-0.1423670219687591
-0.05600636778679042
0.1121041785190624
-0.0465868916303521
-0.1072436778113633
0.0008258493162621604
0.04147847042953524
-0.07036440741287749
-0.02641125012953358
-0.07938537678187031
-0.1019281809925699
-0.0230158361480645
0.1022725111116993
-0.06301483312296439
-0.01277913395695095
0.1262835435264962
0.0959494795131647
0.1174963979550349
-0.08886711542223739
-0.05042581851925908
-0.09261372141367748
-0.09790665769523274
-0.1200620749845856
-0.1227263263850389
-0.1225327831884766
-0.1076346530171137
0.08107807679925279
0.005547321547110852
-0.0666695302348768
0.07620794515551942
-0.08314246429742429
-0.05903629782099105
-0.1297990988380271
-0.1210378868836154
0.04437404123882197
-0.08704121183101704
0.0297871523962231
-0.06414599571603828
-0.00740525010651228
-0.1466223870794379
0.006469284123033618
0.04066539003931308
-0.01964127406611656
-0.04126145819262782
0.127649292683007
0.1175804092282504
-0.06497746036154099
0.07359958706591259
0.08507724182451015
-0.003844500358144054
-0.1268227722775497
0.1424653403877621
0.04825070600061413
-0.09688816355178589
-0.1302638692223764
0.0757172345303545
-0.05452483887994887
0.1008117627589087
-0.06873510122240294
0.02880588526781921
0.02701903170767194
-0.001877565380128837
0.1197667218349879
0.04721785261759068
0.02708348645818618
0.01414133483800179
0.1101784714888058
-0.09312813746930867
0.09999558742386008
-0.04722683295621807
-0.08975255956861776
-0.04353867126327877
0.1434355268689969
0.04060742570581261
0.06520222515013903
0.1210866335201521
0.00818949280908977
-0.1497744776450621
0.04468522229915729
-0.05673448806942183
-0.003621634912500915
0.06786103496228392
-0.06427171168067602
-0.1053724343661465
0.1209730364617389
-0.04453420979298599
0.1203456725787118
-0.08355199989562481
-0.09372239361690468
-0.09838942878338948
0.09525388537219441
0.08329663823046564
0.0497330058364817
0.06502347267932419
-0.01948342889988954
-0.0731824464272626
-0.07083354770244731
-0.05930596613758521
-0.01631280408399695
-0.1208393332539782
0.04346457463299215
0.04393526338856223
-0.01437716956349369
0.03690124476333789
-0.06545617963409472
-0.09917588827473524
0.007985781206742747
0.09273230896458604
-0.09895418521433798
-0.09732899663379835
-0.1140021792445342
0.0474241798731611
0.1205320383284856
-0.02827246625827274
0.09205327262529532
0.09150322242501871
0.07719394327704424
0.06240028774012794
-0.1420471227225135
0.133470984028406
0.1140088615771424
0.1032067626496808
0.06676669590262412
0.01373869956818633
0.01823092168997918
-0.1027151858841422
0.09055942098636151
0.09739668762655773
-0.01202177305799991
-0.07575140643201368
0.1265584306867981
-0.1185559205693975
0.1181880326269559
-0.03781873582275904
0.06834299201999929
-0.09727075442079025
0.0130035554352233
-0.07367122691295633
0.1454615546834942
0.06404937022088532
-0.02100022354675467
-0.1185406247007384
-0.03852489052869237
-0.05046830808708164
0.003185884097158376
-0.09647249421190973
-0.1089644064191883
-0.06962126266398398
0.1159246691311443
-0.1010093217587526
-0.08614872942499291
0.07993331967384244
-0.1478036681179906
0.1306188928338787
-0.05632481305223182
0.02042656721101448
-0.1220969142262344
-0.1157653922055687
-0.03217674530212616
0.01588131285546409
-0.04151679863758236
-0.05561876287945488
0.04732371883545886
-0.07333222681562922
0.05656239408637888
-0.03433075220980959
-0.02060234619798247
-0.08043460148872555
0.04199592386930993
-0.02514079165418668
0.1336147244805438
-0.1290015651778708
0.006318396507041798
-0.05491014789633208
-0.02947248503541223
-0.1404945071742379
-0.001385513437625729
0.01156420705912829
-0.06011422048793835
-0.03546105548062411
0.06055377643115528
0.003737050087068727
-0.1055277023392438
0.06275011561250447
-0.01564405721875097
-0.01185254790181873
-0.06682332461551918
0.01225902869471305
0.02238205879571944
0.05099993008235467
-0.1218596585895213
0.1308652602978355
0.1453811672028998
0.07546450031244405
-0.09246598309570496
0.0519439250586668
-0.1088683773529979
0.03693345273036122
0.1215084089299237
0.08312757482432183
-0.1382094694712243
0.1051231776620835
0.1041238459682118
0.01810732025942359
-0.09978852178045257
-0.07534741241202338
0.02761460713931108
0.04882598277126719
0.08621499703089473
0.1175003866513727
-0.1366350727093569
-0.003231226677648369
-0.02876256340125696
-0.09216280865583699
-0.09048111850418203
0.1055933795196905
0.0459846424851495
-0.007304442980002817
-0.03214706266575522
-0.08163228335782829
-0.1063056430743978
-0.004006831462893818
-0.1007676201982441
-0.110922273807313
-0.07854072693125613
-0.04323283502478982
0.09101966444450414
-0.03741109938705856
0.1436969520029132
0.0625280732347295
-0.1042835247024351
-0.1445125176080095
0.0176512507571146
0.1498397503047435
0.02359659670553942
0.0678627471057059
-0.07550945986318842
-0.09878879629484787
-0.03331127026272532
-0.1392944629719921
-0.1312884097831735
-0.01994634297208224
0.007474840213584025
-0.01005067494023456
0.03789058233460577
0.0669957989428293
-0.05445759380443841
-0.06612450914276972
-0.09031125113382528
0.06339481427026672
0.002242191998400811
-0.04661576417117182
-0.09061243638424783
0.05147415343740683
-0.007539110005618593
-0.01915518672631829
-0.1417602170220391
-0.06651944556111444
0.09343371388662314
-0.1480632651588243
0.1460086276736151
0.139150189184188
-0.1425757827668338
0.01365987843072968
0.1389899394889315
0.03102081393870561
-0.06847733531351261
-0.08651951946187304
0.08223201764385775
0.04821135614369228
-0.07581398334624896
0.1009436078606842
-0.1217349878380704
0.08166032700411059
-0.05910736532374628
0.06615586067370878
-0.001346481149711865
0.03643504087181532
-0.1499686486087593
0.05834226771646284
-0.05017014485791798
0.002273543389641453
-0.138273496454709
0.009217418757834205
-0.0962523033126501
0.004187393539672435
0.1400622321712143
-0.0880125201949908
0.08766794797855799
0.08349594591813904
-0.08607511564254836
0.08367577967991861
0.07264596903605398
-0.07865073292257843
-0.05266354605679564
0.06163607445156019
0.1023692459577551
0.02885907933994153
0.1251165539376049
0.0346012636016129
-0.07292956566574496
-0.1006974295483424
-0.01445512867740129
-0.04466455350381533
0.1309628975954665
0.07643750599885243
-0.128508692969805
-0.02038358369394372
-0.03712745312933226
-0.1284773415785643
-0.1120413159774809
0.06270240201274975
0.02379620195077555
-0.1003148124321899
-0.07808059299653099
0.07754442445002464
0.05387285475653775
-0.08801696436720279
0.1395313784431347
-0.00845947091395942
0.1454779987202389
-0.09654440691068043
-0.07478289540148474
0.06812413368286756
-0.02519597489163093
0.02255355854171961
-0.02023979200527063
-0.07282672907357417
-0.09858736225803724
-0.04512323820736409
0.1117745345280387
-0.02151692792378223
0.00417933238399183
-0.05268059414936257
0.08381851871210082
-0.01485777016024001
-0.1262430882902085
0.1053098257422959
0.1147593354666285
-0.0133708601708988
0.1268321064653404
-0.1472815120745116
-0.1006681395464894
0.0006286861145071265
-0.09759748240355286
-0.02874831877590544
-0.0718274153870658
0.1062750988436281
0.03323373388649603
-0.08229603694393114
-0.05218437221002969
0.02871173246703657
-0.02884044385461157
0.02303273238848557
-0.05316413398979424
0.09596358125375749
-0.1044137092094932
0.07659607400493514
-0.1268631479595151
-0.05300107146753048
-0.118527164202429
0.134911386708222
0.07561891099509219
0.0356542913406928
-0.06776986310073943
0.009298704458136372
-0.129208301472213
-0.04401328032771103
-0.03539131972647293
0.1355523805298192
0.09261646026874697
-0.05855920268678914
0.1382683463967395
0.1419483994574562
0.09207186683740652
-0.1093292238045249
-0.03679973179663457
-0.1297562936005248
0.1469475308828001
0.1464330195775835
-0.06205213509154611
-0.05523646634740612
0.02514569151087442
0.05910695107876931
0.1177955405098771
0.1219820867831505
0.005070597154088741
-0.1366179151834722
0.04857800961882865
0.02820829473359582
-0.03961809019382157
0.08002716889238476
0.01308725467840875
-0.1141724637870786
-0.03433967250479712
0.09533297968801978
0.04515185100329155
-0.01351422333499069
-0.09866846007850287
-0.1402252288711873
-0.02794850959403105
0.1439549141641934
-0.04878267596529656
-0.0397034646228544
0.1358799570029616
-0.106721771834643
0.0009920137980573452
-0.05089299671574413
-0.08646587707981791
-0.002060471508584876
-0.05446930015990935
0.001459347643196268
0.09268375860150731
0.1206671043067954
-0.08941163790512728
0.06048610524296118
0.09264158407070679
0.06561895260312901
0.07384999166684422
-0.008771225560475391
-0.0561499568493679
-0.1157625880386679
-0.0787335118904906
0.1069869978112014
-0.07986903863127894
0.03700032727983958
0.05233839656153306
0.1152783600434549
-0.1265183782639326
0.1036670559069222
0.1250426117060046
-0.004449121313554508
0.09762947182554066
-0.07372469062244028
0.1058641339047494
0.08353462044528423
-0.03042532116516615
-0.04313793237902495
-0.1173607626160937
0.03308908639989538
0.1047795053595805
-0.0218423989061419
-0.1154256250013392
0.04749559700720164
-0.05116270985243786
-0.05483264566383694
-0.04201309904517167
-0.1084891765189728
-0.1391896894574188
-0.1181330914134165
0.03274908830893106
-0.0452919215484115
-0.08383479117146557
0.1040765039258844
-0.08831808038203576
-0.0137114286872616
-0.008926368448898827
0.1140248036724553
-0.04841400985001701
0.01455811316241228
0.0676736583459331
-0.07335059945886561
-0.1399041156431663
0.01532638293012697
0.002924046595922081
0.1159872753207011
-0.0511409621528092
0.1224907343025699
-0.07718386485548254
-0.01852944093555679
0.005594282225134377
-0.1223650754925254
0.1096667304243499
0.04018981370452152
0.07515569432989878
-0.09146000265600052
0.1353616921487822
-0.1168489886615144
-0.04993217948681357
0.1462204123829587
-0.08492925205963163
0.1328605701135753
-0.04907550853634044
-0.01877532358305022
0.0869245739878607
0.01262253973491288
0.1175221890797204
-0.07199230306874603
-0.02335536762762598
-0.08089076156303789
0.09257823784955696
-0.1056511834010955
-0.004238358678048691
0.1026967269527761
0.0596843948027819
0.1486988374035139
0.06867581608741258
-0.1414445131007285
0.1212135740558212
0.141529660264489
-0.009951554807776847
-0.0231829153782388
-0.1308261129318391
-0.05026392966870324
-0.1329886923905246
0.09432587982973718
0.008285494049975856
-0.1475924526648078
0.1275134900936986
0.1083674394348631
0.1486438167738285
-0.1074046857456698
0.09124503999075155
-0.05042994027046017
0.02382796670954114
0.02815696639686566
0.1121666220024965
-0.008674818225090544
0.1061678784099953
